tree
version=v4
num_class=1
num_tree_per_iteration=1
label_index=0
max_feature_idx=15
objective=binary sigmoid:1
feature_names=dept_id cat_id store_id state_id event_name_1 event_type_1 event_name_2 event_type_2 wm_yr_wk snap_CA snap_TX snap_WI sell_price days_since_last_purchase promedio_dias_entre_compras promedio_item_tienda
feature_infos=-1:2:3:1:0:5:4 -1:0:1:2 -1:5:0:9:2:4:6:3:8:7:1 -1:0:1:2 -1:26:11:21:25:22:28:15:23:12:4:3:1:13:29:8:10:24:2:27:5:9:18:0:19:20:16:6:14:17:7 -1:2:1:0:3 -1:3:2:0:1 -1:0:1 [11101:11617] [0:1] [0:1] [0:1] [0.050000000000000003:30.98] [-1940:1647] [1.0015487867836861:80.200000000000003] [0.016486347243688821:130.78773827923752]
tree_sizes=27821 28031 27920 27967 27898 27969 27928 27909 27954 28025 27924 28021 27894 27873 27978 27903 27945 27912 27839 27915 27958 28036 27930 27980 27855 27864 28002 27844 27828 28054 27876 27908 27848 27900 28005 28077 28086 27891 28041 27991 27996 27988 27850 27987 27870 27985 27850 27912 28030 28059 27898 28120 28031 28057 27937 27910 27927 27928 28021 27966 28002 27966 28083 27923 27992 27930 27987 27889 28099 27917 27979 28071 28146 28051 28036 27866 28209 27860 28102 27789 28017 27992 27739 28040 27904 27726 27982 28038 27723 27806 28095 27963 28160 28066 27367 27726 28214 28116 28106 28099

Tree=0
num_leaves=255
num_cat=58
split_feature=13 15 13 15 15 14 13 13 15 13 15 13 15 14 15 14 4 4 12 13 4 14 13 12 12 15 4 15 15 13 13 13 15 13 15 13 15 15 14 15 14 15 13 14 14 8 15 13 4 15 4 4 4 13 4 8 4 8 13 8 8 14 15 13 13 14 15 4 8 4 8 13 15 15 15 14 15 12 15 4 1 12 13 4 15 15 4 12 14 8 12 8 15 4 15 14 4 12 1 13 14 4 8 8 14 13 12 14 1 4 1 13 14 12 4 1 12 1 4 12 14 15 12 13 2 14 15 8 14 15 1 15 0 13 8 8 15 14 13 14 15 15 4 8 13 14 14 8 2 0 13 12 2 0 2 2 15 1 13 11 14 8 15 14 11 15 8 15 14 15 14 8 15 1 0 0 8 15 14 14 14 0 2 15 14 1 14 14 10 12 14 12 14 8 2 12 14 8 15 14 12 2 4 13 12 0 14 0 14 13 12 8 10 8 14 2 0 14 2 13 15 14 14 15 1 8 13 14 14 0 14 1 12 11 13 13 4 14 15 12 14 15 14 15 14 2 8 2 12 14 8 15 15 14
split_gain=3.65968e+06 1.47004e+06 469087 224015 208849 136865 55582.3 33845.8 33396.4 32780.4 30633.3 25077.4 23030.4 19683.3 19166.4 17588.2 12047.7 10964.7 9555.03 6204.26 6154.42 5013.22 4769.65 4734.45 4730.8 4663.69 4473.95 4430.96 4220.27 3753.63 3681.53 3556.62 3429.67 3277.56 3255.11 2761.4 2729.79 2654.78 2591.53 2450.35 2440.88 2364.59 2346.04 2253.78 2138.31 1997.38 1960.46 1744.79 1691.89 1642.42 1606.32 1599.12 1535.59 1491.53 1438.31 1367.74 1325.61 1312.07 1301.39 1313.19 1267.14 1266.37 1216.1 1209.32 1195.51 1183 1169.55 1163.73 1133.49 1114.78 1084.72 989.751 957.476 947.346 942.081 847.363 846.815 830.398 810.175 803.501 762.004 745.89 725.868 721.777 706.281 702.605 687.292 681.546 664.366 663.027 684.007 660.414 658.148 656.899 655.899 690.821 655.647 643.347 663.954 634.851 619.926 615.167 592.244 585.884 545.981 539.503 520.815 517.151 513.109 512.663 500.035 485.336 480.274 475.091 457.333 453.352 438.358 570.989 436.675 433.345 427.685 425.574 424.206 422.283 420.544 418.095 413.749 406.886 404.551 402.093 387.432 385.374 384.365 384.126 376.446 376.244 368.088 358.443 355.046 355.553 354.614 351.875 351.729 346.879 345.067 340.698 335.324 332.621 328.969 322.583 321.467 316.836 312.257 308.374 308.261 305.616 301.678 296.442 289.444 283.916 279.862 276.03 274.823 273.346 272.762 272.079 266.249 266.215 265.922 262.627 262.348 258.994 258.761 257.656 256.623 255.439 254.431 253.282 250.808 249.382 247.82 246.54 246.184 243.985 246.689 243.853 275.616 243.341 242.912 241.324 240.695 237.233 235.412 232.398 232.023 230.81 304.332 230.494 230.218 229.858 226.313 225.578 223.094 221.308 221.207 220.845 296.001 261.472 246.238 224.367 219.443 217.831 217.401 217.308 211.989 210.511 208.759 207.977 206.493 204.419 202.987 202.855 202.424 201.47 200.221 199.279 199.084 198.738 197.045 364.87 196.822 302.498 196.38 195.979 195.849 191.642 190.681 189.085 188.368 188.107 187.075 184.683 184.516 184.035 183.103 210.945 182.537 181.859 181.107 180.438 180.337 179.077 178.281 176.343
threshold=2.5000000000000004 0.95604103281769226 8.5000000000000018 0.44451773673409561 1.9961360123647607 3.6635938827527617 1.5000000000000002 19.500000000000004 0.24548103486519735 4.5000000000000009 0.6455565772569275 1.5000000000000002 3.9683153013910357 6.0067996789359031 1.3502475773491345 2.3803912053886065 0 1 0.77500000000000013 1.5000000000000002 2 1.6866391380028005 1.0000000180025095e-35 0.88500000000000012 0.77500000000000013 0.16001658374792707 3 0.33851349175682643 2.6206850598037117 6.5000000000000009 3.5000000000000004 1.0000000180025095e-35 0.78476845537263229 12.500000000000002 0.13704241193918007 35.500000000000007 1.1433135624492319 0.5286085691103134 1.9094042124044841 1.6053582493851011 7.0927356307461391 0.28080250965114723 1.0000000180025095e-35 1.3912102605787955 2.9260376937202959 11312.500000000002 2.0378670788253479 1.0000000180025095e-35 4 6.73312579404445 5 6 7 1.5000000000000002 8 11312.500000000002 9 11312.500000000002 1.0000000180025095e-35 11308.500000000002 11315.500000000002 2.0789734234550292 1.1433135624492319 1.0000000180025095e-35 1.0000000180025095e-35 2.7619723520010466 4.7690711743611525 10 11312.500000000002 11 11307.500000000002 4.5000000000000009 2.5110236250848721 1.1007190951093084 0.79480155287395615 1.4797981994126079 2.5701585158634184 2.1650000000000005 5.6780747143714416 12 13 1.5050000000000001 5.5000000000000009 14 7.9929418848844973 0.098874768273622099 15 1.1500000000000001 1.5966062662868918 11312.500000000002 2.3750000000000004 11312.500000000002 0.34405851775704566 16 0.66162610312918735 9.5086818383330876 17 2.3750000000000004 18 1.0000000180025095e-35 1.8442927342719788 19 11102.500000000002 11102.500000000002 1.1667670682730926 1.0000000180025095e-35 1.7750000000000001 5.5519433962264158 20 21 22 1.5000000000000002 13.015114770740512 1.1850000000000003 23 24 2.2350000000000008 25 26 1.7750000000000001 1.0734228868346816 2.2787223080886148 0.87500000000000011 1.0000000180025095e-35 27 1.9189896614419808 0.38611921413607775 11308.500000000002 1.0318304626815269 0.83867862271353977 28 0.42184520404271553 29 1.5000000000000002 11319.500000000002 11324.500000000002 1.1608924152056213 2.3092731285502373 10.500000000000002 4.7521468661174557 0.33851349175682643 2.3189514555923272 30 11102.500000000002 14.500000000000002 10.911018237082068 2.0005165289256204 11309.500000000002 31 32 1.5000000000000002 9.9000000000000021 33 34 35 36 0.28080250965114723 37 3.5000000000000004 1.0000000180025095e-35 2.1571031128259759 11102.500000000002 0.19593484016560944 9.5086818383330876 1.0000000180025095e-35 0.58995105615662047 11316.500000000002 3.2438694326478053 4.2908684157006318 0.29597611147976116 1.3207412095775724 11315.500000000002 3.7281250783686652 38 39 40 11334.500000000002 0.24548103486519735 1.6371343957331497 1.2616042750494396 1.6274440261181138 41 42 1.4728513218989863 1.4712028158336234 43 4.0083661388621596 3.1658193762206315 1.0000000180025095e-35 1.1500000000000001 1.0518329046649442 0.58500000000000008 3.6286912486152878 11236.500000000002 44 1.675 3.2376429546678698 11102.500000000002 0.19593484016560944 1.2721221269964942 6.6850000000000014 45 46 1.5000000000000002 0.94500000000000006 47 4.6838927027714226 48 3.8971375223423275 1.0000000180025095e-35 2.1650000000000005 11525.500000000002 1.0000000180025095e-35 11221.500000000002 2.6328940523669155 49 50 1.3998556998556999 51 107.50000000000001 1.2534806657032769 2.8085152186443154 2.7619723520010466 1.7211582600000124 52 11102.500000000002 1.0000000180025095e-35 2.1451830249396626 2.7619723520010466 53 3.7829556975455643 54 0.97500000000000009 1.0000000180025095e-35 5.5000000000000009 7.5000000000000009 55 7.7249952156439754 0.60423622723009041 2.4650000000000003 1.6274440261181138 8.7029881504379194 7.5666736914201422 1.0776691876868874 2.5979005836295026 56 11242.500000000002 57 2.3750000000000004 2.582320697500458 11102.500000000002 2.8834093805540975 1.4500257599175683 5.0699025261176933
decision_type=2 2 2 2 2 2 2 2 2 2 2 2 2 2 2 2 9 9 2 2 9 2 2 2 2 2 9 2 2 2 2 2 2 2 2 2 2 2 2 2 2 2 2 2 2 2 2 2 9 2 9 9 9 2 9 2 9 2 2 2 2 2 2 2 2 2 2 9 2 9 2 2 2 2 2 2 2 2 2 9 1 2 2 9 2 2 9 2 2 2 2 2 2 9 2 2 9 2 1 2 2 9 2 2 2 2 2 2 1 9 1 2 2 2 9 1 2 1 9 2 2 2 2 2 1 2 2 2 2 2 1 2 1 2 2 2 2 2 2 2 2 2 9 2 2 2 2 2 1 1 2 2 1 1 1 1 2 1 2 2 2 2 2 2 2 2 2 2 2 2 2 2 2 1 1 1 2 2 2 2 2 1 1 2 2 1 2 2 2 2 2 2 2 2 1 2 2 2 2 2 2 1 9 2 2 1 2 1 2 2 2 2 2 2 2 1 1 2 1 2 2 2 2 2 1 2 2 2 2 1 2 1 2 2 2 2 9 2 2 2 2 2 2 2 2 1 2 1 2 2 2 2 2 2
left_child=1 3 5 8 11 9 12 33 25 15 37 14 17 41 26 30 -14 -6 76 32 -16 48 102 137 78 85 79 80 47 46 38 103 54 40 112 92 58 60 66 89 73 177 143 56 101 86 65 197 -13 120 -21 -23 -39 64 -12 150 -8 123 161 113 133 193 235 225 146 82 69 -47 122 -2 124 140 96 138 135 -50 194 91 180 -3 156 115 142 -45 104 -1 -34 173 121 148 214 -41 -9 -40 95 144 -32 98 -70 -69 218 -17 -22 -26 -58 250 132 127 163 -62 221 205 -15 -60 -46 -44 117 160 -57 175 -33 217 -65 -56 192 183 -120 -82 -51 222 237 -116 -61 181 -55 -52 -84 -24 139 -4 -43 166 -11 -30 -35 -42 -54 -121 -25 -48 185 174 -125 201 226 -115 -10 -142 238 243 -101 -28 -110 213 223 -72 -89 -83 -73 -129 -80 -133 179 204 -109 -76 -117 -7 -78 -106 -18 187 -144 240 -185 -29 -187 -5 -92 -122 -86 -107 -66 -53 -19 -167 -197 -20 -132 -123 233 -93 -67 230 -49 208 209 -208 -111 -207 -137 -165 -193 -27 -91 -161 -198 -71 -85 -37 -195 -63 -118 -79 -74 -38 -59 -95 -228 -230 -128 -232 -154 -99 -151 -31 -64 -36 -103 -189 -98 -220 -176 -108 245 -119 -112 -124 -168 -131 -88 -178 -90 -171
right_child=2 4 7 10 6 13 43 35 27 29 19 21 16 34 20 44 24 18 28 50 22 51 23 39 31 108 36 55 42 62 72 49 45 94 130 219 63 52 93 77 145 71 81 83 114 67 149 87 75 128 74 61 53 134 57 118 84 154 59 106 109 110 236 68 70 202 -68 99 97 88 165 168 224 -75 119 -77 178 164 170 -81 107 167 136 100 190 -87 105 141 252 90 188 153 -94 227 -96 -97 125 200 -100 116 -102 158 -104 -105 172 191 159 151 162 111 246 -113 -114 155 131 176 129 244 126 147 189 199 247 152 -126 -127 203 169 -130 249 198 171 -134 -135 -136 210 -138 -139 -140 -141 157 -143 182 -145 -146 -147 -148 -149 -150 234 -152 -153 232 -155 -156 -157 -158 -159 -160 215 -162 -163 -164 211 -166 195 248 -169 -170 253 -172 -173 -174 -175 242 -177 251 -179 -180 -181 -182 -183 -184 184 -186 186 -188 239 -190 -191 -192 212 -194 220 -196 196 216 -199 -200 -201 -202 -203 -204 -205 -206 206 207 -209 -210 -211 -212 -213 -214 -215 -216 -217 -218 -219 241 -221 -222 -223 -224 -225 -226 -227 228 -229 229 -231 231 -233 -234 -235 -236 -237 -238 -239 -240 -241 -242 -243 -244 -245 -246 -247 -248 -249 -250 -251 -252 -253 -254 -255
leaf_value=-0.3676462011871014 -0.35460450361743884 -0.27946410828300472 -0.33793670846956814 -0.26262458038484826 -0.39558439310187765 -0.33746472706619324 -0.3898688537522545 -0.37735880080209727 -0.32340843554516968 -0.36672898199465853 -0.34956556299321351 -0.35033263937087405 -0.39320352501551059 -0.36233590569030494 -0.39512642731838499 -0.36251547304491449 -0.14926925062826363 -0.19267405355181827 -0.19802399413169763 -0.36207748246959587 -0.21243682681820453 -0.35389669794504841 -0.21181554189384766 -0.16131707173577176 -0.17099134658714649 -0.31319457964501879 -0.21163999038134701 -0.28543998964282907 -0.18306316532281425 -0.31257910363057057 -0.36149946938090083 -0.10853648513649347 -0.33541929373713036 -0.35662210951018786 -0.34846121425342147 -0.39173363021839869 -0.21437816840563262 -0.36008091402863351 -0.36183846694255717 -0.15877212789362827 -0.3626195172305306 -0.31844249101065114 -0.17042682891267846 -0.34645982791504593 -0.36922039668903384 -0.34474939814519495 -0.30811421835910985 -0.15799674825453563 -0.1897934834201222 -0.10094316589026731 -0.24733652718094909 -0.21536291214048656 -0.39705402586840299 -0.26148551490071587 -0.29662322790099566 -0.39220473823377155 -0.16480615434672269 -0.32672033064208938 -0.23215611463651464 -0.21521426375314232 -0.36134890372734885 -0.25363704340448956 -0.2753312717580072 -0.25538542866884795 -0.23116809094650259 -0.37411791478188205 -0.27375611120592669 -0.33773242587130259 -0.24288558675973293 -0.20699706966089565 -0.26380233144248127 -0.32165801588946535 -0.268024583900136 -0.36251995978995594 -0.24503322643657713 -0.20779299968680531 -0.16966270214479401 -0.16743198896295419 -0.12363413855961555 -0.39521888241465697 -0.29838152288456204 -0.13265375501214921 -0.29654096060902529 -0.22344781103918704 -0.16077518230629995 -0.35128891938902901 -0.22790303103196269 -0.14457234691738607 -0.23916334919514404 -0.190673113418658 -0.17964055117058669 -0.16885317366620026 -0.3867016621805513 -0.25514381300415934 -0.37733364341785885 -0.37520704965551743 -0.23641971223174957 -0.19629764639434305 -0.20135808567961994 -0.23021891205421335 -0.23487128649829778 -0.28135905746481588 -0.34591928987062925 -0.33722635614650986 -0.17333687208851617 -0.26883662809125297 -0.21437461014841425 -0.27794762568303299 -0.34140535623337637 -0.28191920031613532 -0.22436931562596743 -0.28741100534430392 -0.37370161424322457 -0.18601546474330902 -0.30432571638054523 -0.13278576427974986 -0.23348738320313145 -0.22613359198152064 -0.30102821263033547 -0.23026563196388711 -0.12611315025334255 -0.22335920891788866 -0.17481118915525209 -0.21485018495208702 -0.24767889220111827 -0.27179970399639192 -0.29115754658175208 -0.31703148025837846 -0.11018349866859301 -0.22175403165568022 -0.34619170071540228 -0.28563025977231754 -0.24491097765049805 -0.27436177069160017 -0.27403524071942936 -0.26959286253643466 -0.31625398007637512 -0.24162755064031791 -0.35104047674361755 -0.3498013362529242 -0.31824971793504619 -0.14265445526752762 -0.29435740681649469 -0.33241984832703603 -0.3664534338054512 -0.37461547244406301 -0.30610103626360913 -0.24343033138316295 -0.17550199474393718 -0.32549764560499084 -0.2890351720684593 -0.23796140817997444 -0.29028613872513181 -0.17282088625775974 -0.24737046081425787 -0.19899068881632342 -0.31217362842663271 -0.30468435923412313 -0.2853987582101275 -0.18255126723181089 -0.27253994744915006 -0.334349234591935 -0.33128252699977601 -0.32412242846093142 -0.15405184459312773 -0.28046626624290799 -0.1596383851014373 -0.12610762968620168 -0.33095485498569244 -0.30779520150137457 -0.1388371667063093 -0.29661971846273028 -0.19816416084285021 -0.15790279387232886 -0.30927183701483929 -0.27306029520400588 -0.15503520324618808 -0.3298074869411538 -0.18674790822705351 -0.1890302414714678 -0.17355584478971764 -0.26752199888432898 -0.28199762973350606 -0.2518891800517159 -0.27564820271669221 -0.27744637323530535 -0.2584721930001499 -0.2276216831595135 -0.169000837152401 -0.11876639347220264 -0.22622150968179983 -0.21185301849792321 -0.18387255137012806 -0.22931573199517158 -0.2179969513114203 -0.25580331273505469 -0.20352290368260778 -0.32658066562361832 -0.335373021785419 -0.24597829137965674 -0.17949214841426586 -0.19891305171960649 -0.30702885916630202 -0.29748142847481646 -0.20118025599822115 -0.34793721952834417 -0.19311331311501356 -0.26654951347183709 -0.33209533745836717 -0.27351073105980123 -0.25636787355071927 -0.23585370511312281 -0.20157217816447909 -0.3278162137012714 -0.13520611392078341 -0.20475972087446542 -0.24556805547733296 -0.22516681492038476 -0.20353370804497095 -0.39477552186176318 -0.22017820705068308 -0.28495544422764157 -0.19846231973642808 -0.15904144993799146 -0.29797675329178619 -0.32847150207579129 -0.24039241400942343 -0.26387628442263539 -0.21736466281307348 -0.25836159436899087 -0.26996110626634717 -0.30192817773331326 -0.22948248368066085 -0.18653978736703078 -0.34613873877424417 -0.32241147101532863 -0.34013061694147489 -0.35670518111723892 -0.27238093233052552 -0.25212679295627144 -0.25699935272586438 -0.24640940385745225 -0.23304830949660227 -0.20544269432144249 -0.21711280548228964 -0.24432456315043799 -0.24114318775278443 -0.18514428680876199 -0.15030864026680135 -0.20193941904056084 -0.32399001518977433 -0.14039239497419484 -0.25058635945796853 -0.2858448996552207
leaf_weight=19852.204463869333 415.97153058648109 676.75179356336594 38237.704115346074 7749.741148352623 921.81648513674736 49531.797726795077 164.03127652406693 80692.092482894659 20595.992991700768 278.70583660900593 608.48728027939796 408.35930068790913 843.97529552876949 55846.019649758935 656.1251060962677 472.94047692418098 13348.904572457075 4026.3785047382116 96.503430649638176 664.22844760119915 219.52688804268837 540.46832279860973 5852.5770129859447 16291.89087356627 153.47237698733807 6625.5866813957691 121.30456677079201 10867.563181325793 108.53566500544548 25330.063321202993 375.45482306182384 17739.196777507663 227.13911794126034 30919.404513180256 46065.777564913034 264602.58460918069 103.13343733549118 820.64749422669411 327.57144144177437 16799.700274541974 29639.567667007446 40411.364085093141 2533.8903330117464 205.2846514582634 460.66268676519394 447.40267339348793 3516.3591015338898 1119.243350893259 20410.107248693705 32765.984153091908 22680.02509328723 14432.051220282912 319.46809993684292 18984.901367038488 467.0471376478672 244.08246836066246 7151.8127676099539 136.77458237111568 1786.1729123294353 6464.5020745098591 406.3948542624712 4438.4211424738169 260.78026297688484 408.60485649108887 5303.7597928792238 263.48137681186199 4836.9582110345364 278.70583660900593 2224.7355768084526 4446.7700397819281 39702.444481313229 39133.491685345769 1436.747004404664 21932.553228408098 3463.8101596534252 44391.332543030381 10357.543778121471 24571.050333574414 10695.674119099975 615.11728696525097 19883.39005087316 80632.913534328341 19595.598649546504 3766.8260207772255 336.65700615942478 47929.791666850448 164.03127652406693 29384.435187503695 25422.392303198576 29519.490879252553 34244.721199840307 2024.6075972169638 80533.954545646906 27826.383616328239 38933.60926155746 33285.33467681706 2942.9863011091948 32665.060717985034 27486.779940530658 1159.7600584179163 4977.6616862565279 22360.065881744027 932.37538467347622 433.4059926122427 8620.4820264279842 348.93479631841183 38730.289056524634 3657.3081325590611 23760.716183081269 11679.861778244376 4582.316843137145 29524.893106922507 30856.542227566242 17476.45206810534 24326.967865213752 21647.462940916419 23554.940420016646 7394.9130127578974 46375.668988525867 14567.598023638129 32268.733651652932 3501.3801975399256 18900.921282351017 9441.3750764578581 28192.998430475593 28962.570317640901 26173.793060928583 20657.627498298883 111585.46808093786 46747.440474539995 30550.334141001105 16564.212259292603 3729.2559828907251 14327.198892325163 39078.732741236687 8410.286258906126 6827.9246632158756 3413.4712200015783 40081.337085619569 20872.734381884336 12339.179109781981 58325.642150267959 12214.436761766672 355.07369139790535 49862.561393678188 22088.481163427234 673.5595681220293 34695.316098675132 23971.157506406307 5691.4924061000347 17791.745719388127 636.97175344824791 286.3180665075779 29456.38303783536 42446.039470240474 25439.090097814798 33654.89616060257 28507.309858545661 30063.642539098859 2698.1671653389931 2985.7130108624697 510.01940320432186 36149.497565105557 271.83027411997318 33044.444433897734 1824.4796176254749 16400.672094374895 56468.258055016398 28371.517499387264 24316.654521480203 14023.446363791823 37235.345326766372 8409.7951472997665 19731.63656450808 3465.0379386693239 3478.2979520410299 5612.9145490825176 43261.775848403573 8253.1305448710918 14548.690226793289 2700.3771675676107 11834.807490050793 29623.115428194404 3548.2813559472561 6838.7291185557842 13695.38381074369 5836.6158857792616 2465.8713755309582 17248.82183855772 92174.036283776164 2789.7594799250364 32134.169071510434 629.35952354967594 33686.818415015936 4185.0075535923243 32610.792885482311 974.36542701721191 327.81699724495411 16033.075057014823 7647.0988226234913 7647.8354900330305 5268.6453130245209 44093.964465379715 21682.822976574302 1463.0214753448963 217.80799742043018 447.89378499984741 609.46950349211693 547.34388528764248 36863.328284949064 33122.285623505712 331.9914458990097 16714.983522444963 30205.08268173039 372.99926503002644 26376.376598551869 1877.519671112299 13877.340660899878 24549.686978697777 213300.0839856565 21159.789115801454 1472.3525958657265 916.41425746679306 40537.579767927527 7034.191537886858 396.32706633210182 38220.515209123492 27902.260359510779 5092.3362463414669 1526.6204283684492 6129.5639589726925 2133.1432622224092 34387.389121487737 16591.960065051913 4324.4832497984171 18219.258372724056 17840.856880024076 21964.475482821465 28307.672990560532 5218.306373372674 11946.780936300755 549.06277590990067 178.51906891167164 18092.30602248013 4140.0708416104317 6541.361040905118 14263.35438349843 23831.436254397035 34561.733741745353 2593.069281578064 287.30028972029686 21827.946456253529 10248.271445706487 2127.7410345524549
leaf_count=80846 1694 2756 155719 31560 3754 201713 668 328610 83875 1135 2478 1663 3437 227427 2672 1926 54362 16397 393 2705 894 2201 23834 66347 625 26982 494 44257 442 103154 1529 72241 925 125916 187598 1077566 420 3342 1334 68415 120704 164571 10319 836 1876 1822 14320 4558 83118 133436 92362 58773 1301 77314 1902 994 29125 557 7274 26326 1655 18075 1062 1664 21599 1073 19698 1135 9060 18109 161684 159367 5851 89318 14106 180779 42180 100063 43557 2505 80973 328369 79801 15340 1371 195189 668 119665 103530 120215 139458 8245 327966 113320 158553 135551 11985 133025 111937 4723 20271 91059 3797 1765 35106 1421 157725 14894 96763 47565 18661 120237 125660 71171 99069 88157 95925 30115 188860 59325 131411 14259 76972 38449 114813 117947 106590 84126 454420 190374 124413 67456 15187 58346 159144 34250 27806 13901 163227 85002 50250 237525 49742 1446 203060 89953 2743 141293 97620 23178 72455 2594 1166 119958 172857 103598 137056 116093 122431 10988 12159 2077 147215 1107 134570 7430 66790 229961 115540 99027 57109 151637 34248 80355 14111 14165 22858 176179 33610 59248 10997 48196 120637 14450 27850 55773 23769 10042 70244 375369 11361 130863 2563 137186 17043 132804 3968 1335 65293 31142 31145 21456 179568 88301 5958 887 1824 2482 2229 150122 134887 1352 68070 123007 1519 107415 7646 56514 99976 868642 86171 5996 3732 165085 28646 1614 155649 113629 20738 6217 24962 8687 140039 67569 17611 74196 72655 89448 115280 21251 48652 2236 727 73679 16860 26639 58086 97051 140749 10560 1170 88892 41735 8665
internal_value=-0.268247 -0.212157 -0.344335 -0.274805 -0.16462 -0.308712 -0.138515 -0.380523 -0.315274 -0.283912 -0.248812 -0.193125 -0.132126 -0.338807 -0.185805 -0.270662 -0.11797 -0.144426 -0.143812 -0.235666 -0.172523 -0.218661 -0.172007 -0.171399 -0.117262 -0.341355 -0.199645 -0.299899 -0.140591 -0.308521 -0.255598 -0.113948 -0.229672 -0.361346 -0.355692 -0.3903 -0.199001 -0.266781 -0.248401 -0.169657 -0.354447 -0.324736 -0.133182 -0.1979 -0.28853 -0.221967 -0.301309 -0.149276 -0.203065 -0.11358 -0.249489 -0.229415 -0.260904 -0.260421 -0.238193 -0.291392 -0.186572 -0.237675 -0.206032 -0.205562 -0.275026 -0.228694 -0.323313 -0.191361 -0.255494 -0.298157 -0.239061 -0.228093 -0.190924 -0.236501 -0.254781 -0.319022 -0.270025 -0.348769 -0.248861 -0.202134 -0.185869 -0.163458 -0.140564 -0.335132 -0.30984 -0.132778 -0.292136 -0.211881 -0.185766 -0.35608 -0.210081 -0.148886 -0.235739 -0.177387 -0.181184 -0.170781 -0.382026 -0.260131 -0.36914 -0.366343 -0.266478 -0.195747 -0.204468 -0.227548 -0.211059 -0.280209 -0.32048 -0.293755 -0.183048 -0.209506 -0.210378 -0.305061 -0.331101 -0.280391 -0.242884 -0.279966 -0.366381 -0.195209 -0.297127 -0.140269 -0.227224 -0.236226 -0.296159 -0.241947 -0.119157 -0.22761 -0.181242 -0.227466 -0.24393 -0.265803 -0.295915 -0.307152 -0.108086 -0.224513 -0.347605 -0.296686 -0.226003 -0.264669 -0.269932 -0.25491 -0.301635 -0.222798 -0.345728 -0.342126 -0.313587 -0.146977 -0.286176 -0.297454 -0.36269 -0.367742 -0.335362 -0.239537 -0.169713 -0.327606 -0.281229 -0.287415 -0.226733 -0.176271 -0.242879 -0.193671 -0.316439 -0.308782 -0.279714 -0.208524 -0.2607 -0.310771 -0.335297 -0.324386 -0.159462 -0.25959 -0.150115 -0.129958 -0.325565 -0.310854 -0.132259 -0.293236 -0.187179 -0.160745 -0.29173 -0.259049 -0.138712 -0.333895 -0.177239 -0.183191 -0.153356 -0.259576 -0.285611 -0.258931 -0.267532 -0.276661 -0.271776 -0.253492 -0.176077 -0.120671 -0.219174 -0.208764 -0.226222 -0.223618 -0.205427 -0.255105 -0.2538 -0.297343 -0.342468 -0.238874 -0.191194 -0.190444 -0.30746 -0.291695 -0.182463 -0.275605 -0.272859 -0.234715 -0.284152 -0.273948 -0.259046 -0.275591 -0.208335 -0.325186 -0.189981 -0.202647 -0.230897 -0.220758 -0.206932 -0.393091 -0.22579 -0.261438 -0.232176 -0.162208 -0.292897 -0.304912 -0.238651 -0.259518 -0.238375 -0.226729 -0.288052 -0.278214 -0.229996 -0.193011 -0.334344 -0.316693 -0.339241 -0.351123 -0.276343 -0.244263 -0.252932 -0.204497 -0.305435 -0.211531 -0.230614 -0.234625 -0.237065 -0.180533 -0.153311 -0.220713 -0.289068 -0.143388 -0.242445 -0.306029
internal_weight=4.58404e+06 2.63878e+06 1.94526e+06 1.13845e+06 1.50033e+06 980283 783144 964982 445231 537410 693217 717184 707074 442873 557398 349330 328733 378342 377420 400331 284426 159785 283769 282618 327889 165127 272973 280105 350598 188081 189538 287120 279249 325853 201316 639129 271681 292886 126452 273351 172852 241556 189187 76069.8 159792 146636 126430 161411 65209.8 286533 121082 94575.6 170993 170172 132613 150930 42021.2 132004 141424 140793 121893 94035.1 61651 130257 112109 112897 70396.2 96759.8 129757 65559.2 111116 148763 63085.7 121124 120418 64801.4 26822.1 151702 40768.4 1291.87 129174 188723 68539.8 34048.5 41857.2 67782 49876.6 160986 65143.3 121649 81386 53549.3 161226 56056.2 153001 114067 54614.8 86616.4 29711.5 96312.4 33843.2 81204.3 1151.9 586.878 38730.8 49649.4 96090.9 74923.2 97344.7 80297 24756.4 79890.6 86702.6 44701.7 78587.2 51622.2 96033.7 22221.8 102739 56205 142182 29472.6 43141 44582.1 34126.1 54239.3 102495 66985.4 144351 73811.9 114614 78126.5 10193.8 41595.9 58063.6 64212.6 26423.5 9266.05 99191.8 59110.4 81257.9 138672 42116.3 463.609 80782 51728 993.028 49262.9 40263 13532.3 48191.3 7937.84 44115.1 36749.6 87422.3 42915.5 54250.9 40846.5 80731.4 85897.1 4145.47 631.324 59910.2 37434.5 98153.1 76989.6 80346.8 137101 67505 47102 24719.1 53799.6 31579 22313.9 7300.87 6942.11 49088.3 92793.6 18610.7 23169.2 16049.3 27268.7 41837.6 25276.8 10387 30399.6 19532 15433.9 51493.5 124443 3126.42 49198.1 5933.12 69278.7 8211.39 37287.2 35462.7 424.32 46583.4 11148.5 56904.9 7293.25 44357.4 56119.3 2582.26 50365.7 38138.5 1057.36 12227.2 37081.1 41532.6 603.822 48849.2 36830.7 29892.5 29074.5 2851.89 18324.1 28865.6 477903 54846.6 5910.77 24471.4 65108.6 8470.94 499.461 44976.2 55728.6 44839.5 6618.96 34436.5 8262.71 34673.7 49257 10016 43549.3 18101.6 68030.3 50667.7 7684.18 14889.8 25098.7 3643.56 56822.6 18076.3 13936.3 18845.7 42732.4 50962.4 49340.5 451.332 27440.9 35670.7 26444.4
internal_count=18668020 10746135 7921885 4636210 6109925 3992098 3189271 3929787 1813157 2188546 2823053 2920654 2879485 1803552 2269945 1422608 1338729 1540756 1537002 1630306 1158293 650709 1155621 1150930 1335292 672461 1111652 1140696 1427772 765938 771874 1169267 1137213 1327003 819839 2602784 1106391 1192747 514964 1113195 703923 983713 770444 309786 650734 597161 514871 657328 265560 1166877 493093 385149 696351 693009 540052 614648 171127 537574 575934 573363 496396 382948 251067 530457 456551 459762 286681 394044 528423 266983 452507 605821 256910 493266 490388 263897 109230 617792 166025 5261 526048 768556 279121 138659 170459 276035 203117 655600 265289 495403 331436 218074 656576 228283 623080 464527 222413 352736 120997 392222 137823 330696 4691 2390 157727 202192 391320 305117 396426 327001 100818 325346 353087 182043 320038 210226 391087 90496 418394 228889 579021 120024 175687 181556 138975 220884 417400 272791 587856 300591 466752 318162 41513 169395 236458 261499 107607 37735 403948 240721 330914 564729 171514 1888 328976 210657 4044 200618 163967 55109 196254 32326 179654 149659 356018 174769 220931 166343 328770 349807 16882 2571 243978 152448 399718 313532 327204 558330 274907 191818 100666 219093 128602 90871 29732 28271 199907 377892 75790 94354 65359 111049 170379 102937 42300 123799 79542 62853 209702 506780 12732 200354 24162 282130 33440 151848 144418 1728 189706 45401 231739 29701 180641 228540 10516 205109 155315 4306 49794 151009 169137 2459 198933 149989 121734 118403 11614 74623 117552 1946208 223357 24071 99657 265148 34497 2034 183161 226949 182604 26955 140239 33649 141205 200594 40789 177350 73717 277046 206339 31293 60637 102212 14838 231404 73614 56754 76747 174023 207539 200934 1838 111750 145265 107692
cat_boundaries=0 1 2 3 4 5 6 7 8 9 10 11 12 13 14 15 16 17 18 19 20 21 22 23 24 25 26 27 28 29 30 31 32 33 34 35 36 37 38 39 40 41 42 43 44 45 46 47 48 49 50 51 52 53 54 55 56 57 58
cat_threshold=2 2 2 134217730 134217730 134217730 134217730 134217730 134217730 2 134217730 134217730 134217728 2 134217730 134217730 134217730 134217730 2 134217730 1 134217730 2 134217730 2 2 2 514 2 37 134217730 562 25 514 10 451 610 2 2 36 37 38 772 2 961 384 134217730 8 34 256 34 4 2 38 1 68157488 457 550
is_linear=0
shrinkage=1


Tree=1
num_leaves=255
num_cat=56
split_feature=13 15 13 15 15 14 13 13 13 15 15 15 4 15 14 15 13 13 12 4 13 15 13 12 4 12 15 13 15 13 13 13 15 4 8 13 14 15 14 14 15 15 15 13 14 14 14 15 4 13 15 4 4 8 4 13 14 13 8 15 13 13 4 4 15 8 8 8 15 15 4 15 14 8 12 15 14 15 13 15 1 14 15 12 4 15 14 12 12 4 14 15 15 13 12 4 15 8 15 14 8 4 13 12 0 13 8 4 14 8 12 14 15 13 4 12 15 0 14 14 15 14 2 13 4 12 12 0 1 1 15 14 1 1 14 8 13 15 0 8 14 15 2 4 1 10 1 14 8 14 13 12 14 2 8 13 15 12 1 14 15 4 2 0 14 14 15 14 0 11 13 14 12 14 15 2 15 8 14 15 8 14 15 14 0 2 15 14 2 14 12 15 14 14 4 14 2 8 14 12 14 14 13 14 4 14 0 8 14 2 13 15 2 12 0 8 14 12 14 14 12 15 8 14 12 0 14 15 14 14 14 13 8 8 15 14 15 4 4 8 12 2 13 15 4 11 1 8 14 14 8 0 12 12
split_gain=3.15915e+06 1.24174e+06 419060 189565 178449 120032 46267.4 30877.7 28536.8 27279 27278.3 21543.9 19471.6 19213.8 16714 15976.6 10805.9 8119.99 7951.07 5266.49 5092.37 4169.59 4031.93 3963.58 3945.67 3925.39 3507.98 3306.23 3245.07 3142.79 2967.04 2959.41 2776.33 2764.06 2727.85 2539.38 2527.33 2498.45 2492.7 2202.71 2045.32 2038.29 1997.33 1963.66 1918.15 1909.29 1585 1578.97 1542.14 1464.43 1370.33 1353.43 1338.59 1296.68 1288.84 1278.16 1180.87 1142.23 1174.13 1119.27 1034.74 1023.71 1010.66 1004.27 1002.56 979.556 953.387 931.336 881.366 801.489 758.799 720.02 718.786 717.323 766.285 711.734 1031.27 708.549 677.737 673.417 667.651 624.042 623.792 620.811 609.503 598.779 601.962 586.369 585.827 580.302 567.651 562.001 559.886 558.621 549.579 537.737 529.502 514.787 507.983 507.75 503.929 495.411 488.421 477.974 476.33 472.873 460.823 457.62 450.477 445.15 443.948 437.555 431.784 429.949 416.395 415.743 403.793 381.851 377.895 366.158 365.1 364.887 364.369 360.335 358.639 358.535 356.426 408.055 355.48 353.668 348.048 343.444 341.815 341.696 329.826 328.971 328.586 327.838 325.021 323.44 320.805 317.209 310.072 310.051 303.587 303.191 301.855 300.237 298.697 297.671 296.043 293.855 293.095 289.979 288.92 282.185 279.097 272.721 270.459 265.749 265.387 264.483 264.099 263.521 278.366 263.442 261.773 259.191 256.871 256.212 255.765 254.825 251.569 241.685 238.621 237.436 237.143 236.022 232.673 229.575 228.946 228.645 226.508 223.058 221.871 219.718 219.595 218.858 218.222 217.905 215.637 214.465 212.199 210.888 210.23 209.201 213.522 209.171 207.421 207.12 220.141 206.377 205.887 203.459 202.606 201.497 201.218 198.66 198.121 195.124 194.587 193.86 192.935 192.924 191.879 191.394 190.93 189.789 199.022 186.9 198.848 185.667 183.296 182.476 181.966 180.783 180.485 177.656 200.91 174.832 187.016 173.625 173.486 172.701 170.575 169.634 179.634 168.3 168.243 167.538 167.529 167.367 165.049 164.853 164.699 164.203 164.162 162.252 162.073 161.266 197.134 160.288 158.918 157.922
threshold=2.5000000000000004 0.94582442697885505 8.5000000000000018 0.43329224069574063 1.9961360123647607 3.7829556975455643 1.5000000000000002 19.500000000000004 4.5000000000000009 0.6455565772569275 0.24548103486519735 1.3502475773491345 0 3.9683153013910357 2.4289540451686684 0.19593484016560944 1.5000000000000002 1.5000000000000002 0.77500000000000013 1 1.5000000000000002 0.15509094582751057 1.0000000180025095e-35 0.87500000000000011 2 0.77500000000000013 2.6206850598037117 5.5000000000000009 0.33851349175682643 3.5000000000000004 1.0000000180025095e-35 12.500000000000002 0.5286085691103134 3 11312.500000000002 36.500000000000007 4.9286623046165046 1.1433135624492319 1.9094042124044841 6.9562037962037975 1.6519835136527565 0.11913879280018763 1.2865476172495793 1.0000000180025095e-35 2.9739761771970366 1.3576438663622279 1.9429618731133156 0.82947455724211061 4 1.0000000180025095e-35 6.32147528878341 5 6 11315.500000000002 7 1.5000000000000002 1.7401084482040543 1.0000000180025095e-35 11309.500000000002 0.78476845537263229 1.0000000180025095e-35 1.0000000180025095e-35 8 9 4.7690711743611525 11334.500000000002 11312.500000000002 11312.500000000002 0.96584790810530319 2.361714980872343 10 0.79480155287395615 1.522599693251534 11310.500000000002 2.3750000000000004 2.4646702898550727 2.6500002814792301 2.5701585158634184 6.5000000000000009 5.6780747143714416 11 1.7291859026148069 0.34405851775704566 1.1500000000000001 12 0.72232260687169114 9.5086818383330876 2.2350000000000008 2.3750000000000004 13 1.6148862131008168 0.098874768273622099 8.7029881504379194 5.5000000000000009 2.3750000000000004 14 0.19593484016560944 11102.500000000002 0.31505985889825761 2.0628234356018651 11102.500000000002 15 1.0000000180025095e-35 1.7750000000000001 16 1.5000000000000002 11242.500000000002 17 5.5519433962264158 11324.500000000002 0.87500000000000011 1.9646913785460995 0.4045340349089504 1.0000000180025095e-35 18 1.8750000000000002 0.72232260687169114 19 1.0518329046649442 1.1667670682730926 0.28567748583204539 1.1221547897940971 20 1.0000000180025095e-35 21 1.7750000000000001 1.9850000000000001 22 23 24 2.2787223080886148 2.9504977029096486 25 26 10.911018237082068 11242.500000000002 14.500000000000002 0.15096584086084699 27 11319.500000000002 4.7521468661174557 1.428387429160227 28 29 30 1.0000000180025095e-35 31 2.0005165289256204 11102.500000000002 4.6291530501089335 10.500000000000002 0.94500000000000006 2.3092731285502373 32 11236.500000000002 4.5000000000000009 2.8834093805540975 9.9000000000000021 33 1.3839249021261872 0.28080250965114723 34 35 36 6.1050998052580345 4.7521468661174557 6.73312579404445 2.6648039460539463 37 1.0000000180025095e-35 1.5000000000000002 1.888127953789603 1.675 3.1658193762206315 0.07734748991605532 38 0.28567748583204539 11102.500000000002 7.5666736914201422 0.60423622723009041 11315.500000000002 6.2187309172972265 0.392135791931635 3.8971375223423275 39 40 4.2103228008036462 2.1451830249396626 41 1.3207412095775724 2.0900000000000003 2.3189514555923272 1.3759131872233779 1.5876195499569505 42 2.582320697500458 43 11138.500000000002 3.4581055377966323 1.675 3.1140543037969644 1.6274440261181138 1.0000000180025095e-35 2.5614162055786895 44 1.2721221269964942 45 11102.500000000002 1.3998556998556999 46 10.500000000000002 0.38067621481083025 47 2.2450000000000006 48 11334.500000000002 1.2057907222795932 6.6850000000000014 2.8526501924970904 3.4874921826141345 9.8650000000000002 0.99974240082431753 11526.500000000002 6.0067996789359031 9.6950000000000021 49 1.0518329046649442 1.7211582600000124 1.4090084084882879 2.6328940523669155 1.6474817360855407 107.50000000000001 11308.500000000002 11102.500000000002 2.5701585158634184 1.5966062662868918 1.1881583841350245 50 51 11226.500000000002 0.97500000000000009 52 3.5000000000000004 0.59672326886391813 53 1.0000000180025095e-35 54 11311.500000000002 4.2461053142441161 9.2687752134346582 11515.500000000002 55 0.87500000000000011 0.87500000000000011
decision_type=2 2 2 2 2 2 2 2 2 2 2 2 9 2 2 2 2 2 2 9 2 2 2 2 9 2 2 2 2 2 2 2 2 9 2 2 2 2 2 2 2 2 2 2 2 2 2 2 9 2 2 9 9 2 9 2 2 2 2 2 2 2 9 9 2 2 2 2 2 2 9 2 2 2 2 2 2 2 2 2 1 2 2 2 9 2 2 2 2 9 2 2 2 2 2 9 2 2 2 2 2 9 2 2 1 2 2 9 2 2 2 2 2 2 9 2 2 1 2 2 2 2 1 2 9 2 2 1 1 1 2 2 1 1 2 2 2 2 1 2 2 2 1 9 1 2 1 2 2 2 2 2 2 1 2 2 2 2 1 2 2 9 1 1 2 2 2 2 1 2 2 2 2 2 2 1 2 2 2 2 2 2 2 2 1 1 2 2 1 2 2 2 2 2 9 2 1 2 2 2 2 2 2 2 9 2 1 2 2 1 2 2 1 2 1 2 2 2 2 2 2 2 2 2 2 1 2 2 2 2 2 2 2 2 2 2 2 9 9 2 2 1 2 2 9 2 1 2 2 2 2 1 2 2
left_child=1 3 5 10 11 8 12 31 14 32 21 17 -6 18 29 41 19 24 77 -13 33 91 97 152 -3 79 49 75 80 38 100 39 53 107 59 82 93 57 63 68 73 174 78 148 95 62 54 116 -19 207 121 -22 244 114 -18 60 -50 177 115 123 147 233 -8 -2 90 110 170 122 140 89 -47 135 192 153 229 76 141 209 131 201 160 166 -9 128 -40 86 136 106 109 -31 130 -1 119 98 104 -16 251 -21 -17 215 -27 -55 -49 138 -67 163 -42 -11 120 -51 -63 227 -46 -61 -5 158 175 173 -52 -64 -82 -32 198 -35 -68 206 127 -104 -45 223 208 -29 -101 -126 -41 -53 -33 -43 -60 -57 150 161 -117 -114 -98 204 151 -54 -28 182 -4 -108 -24 -25 -127 176 -85 178 -59 -111 -12 -10 -125 183 202 232 -72 -97 234 -76 237 -163 -137 -116 -7 -36 -131 -26 184 -69 -145 -146 -135 -103 -110 211 -121 -86 -118 -81 -175 -90 -56 -79 -100 196 -128 -115 -62 -181 -201 -15 -165 -48 -105 -132 -73 -20 -65 -14 -70 -151 -129 -123 -80 -58 -158 218 -96 -204 -221 -206 -177 -38 -190 -71 -94 235 -229 230 -75 -37 -122 -39 -44 -91 -237 -30 -78 -134 -164 -154 -196 -124 -34 -89 -93 -162 -184 -183 -251 -23 -207 -188
right_child=2 4 7 9 6 15 45 35 27 20 28 16 13 25 44 36 46 48 26 22 51 96 23 40 37 30 43 42 66 69 50 85 52 34 47 231 129 61 84 134 87 137 168 83 112 70 203 102 56 88 118 71 55 101 72 139 99 58 103 113 67 65 92 64 -66 94 124 179 210 225 81 125 -74 74 169 -77 238 193 214 189 108 -83 -84 156 187 -87 -88 245 191 111 -92 246 226 -95 217 167 144 -99 194 132 -102 105 126 145 -106 -107 146 -109 157 159 -112 -113 143 197 117 142 188 -119 -120 186 165 213 243 162 133 154 195 212 -130 155 205 -133 239 149 -136 172 -138 -139 -140 -141 -142 -143 -144 180 181 -147 -148 -149 -150 185 -152 -153 241 -155 -156 -157 216 -159 -160 -161 247 171 240 164 -166 -167 -168 -169 -170 -171 -172 -173 -174 190 -176 222 -178 -179 -180 199 -182 249 248 -185 -186 -187 253 -189 224 -191 -192 -193 -194 -195 242 -197 -198 -199 -200 200 -202 -203 219 -205 221 252 -208 -209 -210 -211 -212 -213 -214 -215 -216 -217 -218 -219 -220 220 -222 -223 -224 -225 -226 -227 -228 228 -230 -231 -232 -233 -234 -235 -236 236 -238 -239 -240 -241 -242 -243 -244 -245 -246 -247 -248 -249 -250 250 -252 -253 -254 -255
leaf_value=-0.093632027562990217 -0.082538256570453758 -0.12049023687244732 -0.064723601384003931 -0.092599242422184716 -0.12026548201552595 -0.10208337441957611 -0.11448110432388083 -0.10317615967532347 -0.092987387007767569 -0.031772609323342804 -0.051551175370653533 -0.1202653862068174 0.069441406365828073 0.1088730055643088 -0.090453930703478708 -0.05213762122543656 -0.11884468524855354 -0.085051616761626467 0.064547194360660434 0.05138003682445122 -0.088875752883384423 -0.058069074590198645 0.05161526608083452 0.10310099490171615 0.048260633399893872 0.089159437740030267 0.078180775454199394 -0.028317172337974695 -0.07617077579312416 -0.087416678827927224 0.14209802581439243 -0.083309561947269198 -0.050588668928412649 -0.026401694650678462 0.0095262346785522922 -0.1169730221788766 -0.065200448917289516 0.049603769508352887 -0.088079908247808425 -0.088583187928280349 0.10288305505282076 -0.083494420297955452 -0.062511547305250326 0.088382852403847426 -0.036727773820406234 -0.074637171588466791 0.030873790120472706 -0.071768845483798624 0.051175796404878252 0.11175564630775492 0.15155275709143104 0.02163196626533016 -0.12203587361083007 -0.11856403183234891 0.081622027272585856 0.0062700282514387409 0.043798745217235133 0.057375396377781905 0.047638950008650149 -0.019132261384907919 0.032212193153565029 0.010706146619698525 0.094100771824661561 0.056353726989873752 -0.004575909638878559 0.017385069759912653 -0.092554337214899793 0.0047421414967770276 -0.081948916477011871 0.00090998484310364036 0.060546919029353705 0.021539168955148007 0.053612305992728468 0.07800133016240203 0.082354263190038662 -0.051221960721645449 -0.10030482868776178 0.091911367203294694 -0.037760723721604703 0.13208607744912421 -0.044023203142637558 0.036289190879500478 -0.11217054493438368 0.12051126622663651 0.012132333991929523 -0.10337856852384597 -0.10089980592518889 0.098471884166836471 0.11002726670890148 0.024764030876295962 0.02340509969756794 -0.081466347400588709 0.096781191704418762 -0.056277504327187949 0.067831535447972005 -0.0078699565568166058 -0.059550418122490567 -0.072873686877617361 -0.10050502908290647 0.0038937290188232605 -0.06461826971238864 -0.014432588518956364 0.0043435052037717123 -0.018016755873236711 0.059441048743812015 -0.018847996135892352 0.091873341311991943 -0.12256310770563783 -0.011732834925019 0.10653529169817576 0.079009787076151444 -0.0042929308687736211 -0.094166582790602416 0.0620119041154472 0.0018875058045651875 0.059928775226529146 0.03656408303304768 -0.0041196210958115553 0.14356376636111653 0.079174137109673359 -0.027679601031221284 0.13054425174279824 0.014096724320524761 0.049176237414098378 -0.032650734470912421 0.037017623228527446 0.032958231185977127 0.02047987501115759 0.11710249705724865 -0.057496616620404582 0.04137745677740081 -0.042024323401853685 0.042882372288132818 -0.02878241254010868 -0.10033030879032093 -0.0093600154955586871 -0.092809847872121418 -0.075237926647434186 0.021100869176424421 -0.0053606475445612412 -0.077860423059788478 -0.030156860353969056 0.073385734896184524 -0.017677890462569436 -0.053953979715379692 0.060266946914340321 0.088172282905547558 -0.035274779737979899 -0.060065372411705856 -0.0022809940169761325 -0.07530762903665815 0.033193959214358582 0.062758797481971121 0.088553862514233375 0.023064229913169448 -0.065028815514876742 0.13162798929972444 0.027968806959609648 0.02051819005888179 0.094896209590534505 -0.033588891047280744 9.6347498787123316e-05 -0.020483963466951891 -0.073392374606316244 0.11594525987075698 -0.021173347207559989 0.029892614973752302 -0.016249598466042264 -0.052315258517426556 0.092221801426891931 -0.020863209601894545 -0.016170807070689922 0.010870906218720364 0.034369479981395099 -0.09221406613465917 0.01920728025841795 -0.039570223615782801 -0.061321319484788403 0.030965646409829573 -0.015360691109394401 -0.027698586727033809 -0.041367052758760688 -0.020615138488424372 -0.056265762896803406 -0.038138748495514747 -0.014752735933845787 0.083635977907743547 0.0033336755241268512 0.025414305350086427 0.11832500249109705 0.01127373605284723 0.11711592324976003 0.066031540539287337 0.076367519212532209 -0.037021571848794149 0.06064092185137783 0.044214674436515979 0.051267115840966125 0.067674429016410326 0.012076773074579076 0.032766550011460303 0.086828686386992537 -0.007963101595050405 -0.0031367283421590052 0.045306117199597408 0.043501149085257547 -0.0041184800002869431 -0.054545189446476516 0.038936180689421757 0.046300297556142997 -0.094916337343106574 0.058388021306260592 0.042289291362442673 0.13711566399751957 -0.048964447188282377 0.033963050153649289 0.12542267624640116 0.081391265888586292 0.12786596000280459 0.0010721258609590176 0.053027158024022539 0.054231612596082612 0.030052713449618785 -0.07420903950835768 0.043581502625815602 -0.026311856061260221 0.036096666704544179 0.019254317359133681 -0.011284725780346045 0.121593309151609 0.067184271108991916 -0.11982177192878493 -0.038662379019386357 -0.056421292184794428 -0.076886110354706119 0.014519375802086339 -0.00074280303249232003 -0.0085967700604270229 -0.033671055250684749 0.024789813727996907 0.03575992789571783 0.017590109085876007 -0.044922134879697026 0.025108252997032274 -0.12108940921039017 0.10542365223797856 -0.071366207191440684 -0.044486222681701319 0.0098823808327519833 -0.062197721806652832 0.061108936253659998 -0.068704012346566215 0.015709609180749512 0.055493113210174701
leaf_weight=19543.630381435156 436.22519612312317 619.6585937589407 35761.73773124814 234.01599362492561 1729.5964771807194 18970.012140989304 140.58966314792633 82105.9743565768 213.00752179324627 667.8546741604805 20429.872436448932 642.59088444709778 4061.4397495388985 13515.07640978694 461.13339868187904 44050.82548764348 207.29321368038654 533.65584594011307 97.293080627918243 220.99723720550537 632.78296396136284 11634.199045032263 5760.8911424726248 10427.44743616879 131.25824664533138 155.11343255639076 109.57937172055244 25096.088897719979 188.87318143248558 381.15790615975857 34911.600107356906 31502.570838108659 409.57957309484482 465.19223821163177 9253.46701143682 252729.46414516866 41190.664771288633 103.80278259515762 349.91767820715904 31037.804328158498 12500.47008882463 42907.316153511405 10823.585409700871 2475.9774882793427 24010.995499759912 238.92106467485428 7834.3893850892782 210.44182032346725 28243.859501838684 25656.062703073025 43692.346534997225 15490.136529296637 312.76038244366646 223.93957686424255 6152.2908587902784 19001.83446803689 17154.949221923947 3846.194994956255 6947.1149397343397 428.74157127737999 5219.5855685472488 513.55331294238567 7479.6176898628473 4479.0985655039549 4807.6126666367054 1559.6124408692122 433.36163695156574 47410.917893826962 14275.929885238409 1574.4634723365307 29795.751288741827 3047.772528603673 34582.413420811296 14705.431510552764 41611.443727344275 5709.0621658414602 199.15000881254673 8602.9414874315262 11023.110975652933 10847.743909344077 21796.163428559899 8134.8124626129866 82776.879067718983 39666.985348835588 27873.897431492805 35434.902244135737 32722.504712998867 53924.283929944038 54665.757914319634 4243.5854479521513 33671.343663081527 31240.498167946935 298.56645059585571 41784.530226379633 43496.353617280722 39389.097288623452 33387.050431072712 921.41001074016094 322.92644976079464 3723.225558757782 428.93908098340034 13491.724750116467 2818.2992513179779 225.20600675046444 24841.309519439936 33597.621300518513 790.85937176644802 561.33822949230671 3411.4370827674866 17632.318732813001 53749.838999330997 29040.066609397531 337.54287040233612 13708.806403547525 12705.741432026029 14648.378218472004 15404.590925231576 21211.16606028378 114857.44228836894 21357.741562798619 11133.595886513591 55247.180275976658 17252.06866709888 9502.1709012389183 30857.5829410851 10137.279748544097 12462.89924287796 3172.3064668923616 33155.534415066242 21083.951756089926 3520.6564141362906 16002.854813441634 3390.5907548964024 30938.062517210841 21717.362125217915 3542.7868795692921 50919.781595334411 64138.033863380551 3912.5565769970417 39048.314403533936 33499.659437000751 7545.5591211766005 28461.865525066853 17538.110960125923 17291.971089527011 30830.576556637883 35380.155638173223 669.93421800434589 351.69437679648399 682.91178905963898 23352.890209153295 1078.1880055218935 514.2080619931221 36596.330131694674 36479.852704450488 24995.51529763639 40997.014154598117 639.40553948283195 1471.4968671500683 25877.636227115989 10776.804225951433 6397.5151468068361 285.44434225559235 236.25369347631931 101.42231936752796 8834.3765581101179 1567.5467269718647 39540.640360981226 8195.8809075057507 21250.485765352845 15704.712116718292 26354.941664263606 45290.465248957276 2715.1495902985334 42295.805316239595 26602.603389173746 4852.8877567946911 526.6587461233139 420.36848212778568 1301.9778788685799 39957.895303875208 8668.0794642865658 24189.933324471116 717.61993978917599 3444.7203620523214 3017.5363171547651 1441.6400465220213 33009.860626488924 47041.109352082014 14208.669533476233 10590.034704610705 39160.678248241544 19330.889693960547 10196.200567930937 25810.891365587711 3202.3955311328173 36214.830880433321 33000.612498238683 1060.9415674209595 23387.319950580597 3115.3644988834858 2728.6504727005959 30596.238637626171 1068.5360492020845 17616.300564944744 1320.3645467460155 3507.7028338313103 325.00680550932884 15827.896143615246 4210.5277892947197 10916.534003615379 479.07195252180099 7354.4010479748249 42068.227059602737 37299.009967774153 27578.940531805158 74996.585824280977 6772.1239669919014 297.21486799418926 11395.276669323444 407.89596851170063 42556.572451293468 12128.468744128942 16972.942733511329 3144.317338258028 7789.1313286721706 2139.0163959562778 1594.0806351900101 4148.7612746357918 379.75781816244125 20393.077919408679 208914.52609762549 24849.039397761226 393.29937422275543 7451.0012346804142 10353.230470687151 6850.2428906410933 26532.147452101111 32285.204351112247 14172.992288306355 34552.842856958508 2910.5605348944664 31249.078875213861 12558.73819924891 399.41270425915718 27389.426625087857 11871.714177653193 22665.791435688734 968.82846057415009 112.48687931895256 180.57362070679665 29372.985693991184 6587.7719037234783 4089.6691148430109
leaf_count=80846 1799 2576 147170 953 7191 78560 584 340287 881 2752 83875 2672 16397 54362 1906 180900 855 2202 393 894 2615 47790 23303 41982 531 625 442 102654 770 1575 140104 130075 1692 1902 37583 1050199 169400 420 1446 128261 50318 177197 44505 9976 98323 984 31768 866 114251 103197 175235 62913 1301 926 24833 77314 69466 15551 28115 1752 21162 2087 30127 18109 19593 6331 1786 192926 58964 6412 120424 12375 139909 59340 167743 23430 824 34660 45213 43557 89323 32950 343656 159381 113320 146845 135551 217102 219867 17243 136673 128857 1202 171634 175617 160647 137246 3797 1324 15150 1765 55058 11469 919 100386 137213 3193 2313 13911 70943 216822 118341 1396 55435 51740 59181 62486 86425 460850 86154 45533 221821 70079 38449 126191 41089 50479 12874 133262 86716 14259 65555 13734 126551 89953 14424 210609 264408 15887 159144 138152 30850 114905 71628 71020 124640 142587 2743 1446 2794 96319 4354 2087 147457 148069 102802 164670 2594 5955 104152 44166 26115 1166 973 410 36148 6349 161348 33678 85613 64140 107584 184162 11028 174891 107975 19903 2166 1710 5311 163413 35598 98824 2947 14111 12337 5824 134379 190890 57109 43085 157441 78072 41130 105771 12945 146669 133448 4289 95088 12640 10997 124718 4348 71278 5362 14292 1335 64134 17043 45104 1954 29802 168867 153009 111764 301267 27308 1200 46437 1660 172100 49221 69987 12759 31838 8666 6478 16903 1526 82303 868642 101787 1616 30684 42114 27875 108172 132189 57511 140039 11813 128168 51012 1650 110209 48967 92890 3952 462 734 120941 26752 16522
internal_value=-2.90202e-05 0.0516752 -0.0714145 -0.00660814 0.0945955 -0.0377442 0.118642 -0.106032 -0.0153767 0.0167982 -0.0450793 0.0686369 0.124418 0.12501 -0.00315767 -0.0671877 0.0815315 0.0564834 0.11383 0.087776 0.0296512 -0.0685401 0.0882433 0.0887947 0.0626772 0.137861 0.116741 -0.0379249 -0.0304783 0.0110818 0.140851 -0.0875975 0.000582606 0.035153 0.0356491 -0.11548 -0.0555495 0.0630805 0.0175992 -0.0810027 0.0903648 -0.0846345 -0.0457787 0.123449 -0.0206316 0.0646646 0.0555881 0.0303928 0.0379589 0.10887 0.141182 0.0169743 0.00680711 -0.00712456 0.0598417 0.00725466 0.0386602 0.0566688 0.057089 0.0458868 0.0118089 0.0704435 0.0766292 0.0269571 0.0276452 0.0708402 -0.0225188 0.0124683 -0.0754425 -0.00194667 0.0535401 0.0175504 0.060468 0.0843929 0.0808413 -0.0263603 -0.0244158 0.0756343 -0.0405564 0.116765 -0.0387843 0.0543206 -0.107692 0.123813 0.00680211 -0.0950674 -0.0925097 0.0969882 0.109222 0.00133078 0.0300178 -0.0833473 0.0773693 -0.0491629 0.0655362 -0.0125345 -0.0593221 -0.0488369 -0.0462322 0.0333118 -0.0237778 -0.012245 0.0394394 0.0526413 0.0569857 -0.0119677 0.090736 -0.0738886 -0.0343019 0.104117 0.0783634 0.00194756 -0.0284859 0.0537516 0.00266922 0.0664649 0.0251806 0.00316028 0.145765 0.0797919 -0.0362614 0.135685 0.0221233 0.0376125 -0.0267168 0.0238471 0.0397982 0.0291415 0.115107 -0.0639337 0.0370338 -0.0336544 0.0240167 -0.0263907 -0.093419 0.0123481 -0.0891788 -0.0785474 0.038141 -0.00155352 -0.0721441 -0.0166338 0.0688441 -0.025064 -0.0549247 0.0543674 0.0866595 -0.0628881 -0.0272238 -0.0231903 -0.0689048 0.0580233 0.0415454 0.0918204 0.0260985 -0.0594851 0.125805 -0.0178124 0.0471764 0.0996129 -0.0449855 -0.0135384 0.0382841 -0.00791045 -0.00503833 -0.0324865 0.0590148 -0.0120663 -0.0634205 0.08569 -0.0134582 -0.0129894 0.00940318 0.00909613 -0.0952699 0.0200836 -0.0541425 -0.0394591 -0.0218353 0.00783552 -0.0246377 -0.049042 -0.0245928 -0.0165337 -0.0250726 -0.00436655 0.0758116 0.00736068 0.0289095 0.124283 0.0159868 0.112986 0.0697955 0.0834808 -0.0416988 0.0425394 0.0413486 0.0544206 0.0381419 0.0131102 0.0145088 0.10517 -0.00532731 0.0267918 0.0513559 0.0268274 0.00783685 -0.0271076 0.042778 0.0578022 -0.087568 0.0225381 0.0357425 0.133385 -0.0464266 0.0377349 0.127616 0.0700004 0.068239 -0.00494804 0.0028676 0.05161 0.0225976 -0.0678293 0.0265473 -0.0217617 0.0435296 0.00861341 -0.00280779 0.0722502 0.0717164 -0.118262 -0.0352641 -0.0342815 -0.068335 0.0116716 0.00844213 -0.00910613 -0.0341208 0.0282825 0.035289 0.0246065 -0.0413411 0.0187294 -0.0864496 0.100813 -0.0786851 -0.0409746 -0.0194407 -0.0395636 0.0137795 -0.0657177 0.0203498 0.0628281
internal_weight=4.57557e+06 2.65359e+06 1.92198e+06 1.12538e+06 1.52821e+06 974316 793314 947669 553691 699685 425698 734893 716630 714900 359095 420625 356574 378319 382239 287398 390312 163303 286755 285613 283521 332661 355168 194596 262395 197859 291361 321142 309373 272183 270954 626527 252314 282901 131885 170562 276427 168311 115892 191753 161235 76683.9 69175.8 179010 94798.2 163415 290777 118129 171149 138224 60272.9 170340 94264.6 151174 150516 91943.8 112290 131727 36946.8 70651 70214.7 131230 133993 111307 117807 65974.7 39737 117496 60065.6 145364 98340.2 78704.4 72995.4 27071.1 89421.1 41300.1 128402 39498.1 164883 191292 61233.7 150580 115145 131063 162992 56611.1 65407.1 62655.8 36806.3 143218 76966.6 79390.9 100647 1142.41 101434 66020.7 584.053 90768 65435.6 102088 26400.9 90544.1 49749.7 1229.19 74529.1 69166 54263.4 56230 81844.5 47138.2 47456.1 48427.9 113575 47222.1 158550 34368.7 66613.2 132227 36091.3 44805.7 91567.3 53172.6 65225.1 13345 35631.5 109096 31735.8 41098.9 21286.8 91133.9 52755.2 64323.4 82422.4 107045 10859.7 58050.1 92614.3 40511 43110.2 57833.5 59640.2 91228.7 37249.2 982.695 461.274 60276.3 59114.6 1869.05 9185.66 47023.8 46617.1 50932.4 155661 7915.93 5317.69 43510 53872.5 32965.5 44340.5 56946.4 42737.1 44817 31363.3 78929.7 26470.5 62861.9 42425.7 32752.5 48833.3 26010.9 61265.8 47984.5 25936.8 657.917 7276.53 75215.6 57496 26253.1 56096.8 14209.3 6856.16 4179.52 26889.1 60883.8 65590 25056.4 13305.2 93826.4 25483.2 18799.1 57382.9 51880.1 48677.7 46709.4 6280.53 27804.7 26502.7 16243.7 42635.7 8902.93 60398.1 11428.8 6555.48 422.3 20307 8271.97 25192.5 1161.98 10526.7 97315.4 48322.1 44733.9 115994 50565.7 43793.6 42399.4 11803.2 60172.9 38731.1 58163.6 50185.4 9363.59 2437.58 27189.9 5742.84 35478.3 35098.5 461644 35982.6 497.102 18274.6 21447.1 17203.5 26721 32484.4 17563.6 34838.3 3424.77 57060 29810.8 808.992 81313.7 43112.2 33442.6 25158.8 8961.14 293.061 41007.2 7908.14 5531.31
internal_count=18668020 10746135 7921885 4589117 6157018 3992098 3189271 3929787 2260437 2843137 1745980 2967747 2879485 2872294 1463266 1731661 1438078 1529669 1537002 1158293 1583213 672461 1155621 1150930 1145591 1335292 1427772 797171 1073519 804605 1169267 1327003 1259924 1103274 1098209 2602784 1036605 1143015 535826 703923 1113727 695056 475298 770444 658661 309786 279785 726018 384078 657328 1166877 479939 696351 563573 243669 693009 381876 611228 608531 372191 456551 531787 149079 286681 284882 529751 547471 452507 485709 268779 160707 477324 242814 585964 396525 321873 298443 109230 366431 166025 526048 159723 683943 768556 249145 623080 476235 527763 655600 230529 265289 258670 148495 587797 310842 323901 413791 4691 416163 267625 2390 370342 265104 412939 106717 369416 200452 5065 305117 278292 218909 228954 334760 190635 193231 195592 460914 192278 636085 138627 272791 530792 146542 181556 374389 215825 264238 54145 143238 448808 128616 168209 86395 372603 218214 261499 340684 441605 44002 236458 381641 165430 174086 236437 245060 368937 150134 4044 1888 246412 243489 7547 37203 189439 189158 209421 625318 32326 21506 175095 220931 134580 179654 232203 174198 183468 126773 321995 108867 253356 173082 133699 198586 105853 253451 194779 106619 2697 29732 305965 235041 107814 229327 58005 28022 17085 108500 247699 266135 100666 54113 377308 102905 75790 235263 210093 197148 188883 25451 113039 107728 65359 173788 36116 244297 46373 26667 1728 82243 33440 104068 4748 42676 390688 198222 181230 465937 204125 176817 172815 48097 243378 157196 239387 203649 38250 9868 110613 23381 143169 141643 1918841 147320 2036 75189 87232 69989 108942 133013 71245 141205 13900 233939 121091 3342 327311 177824 137056 102776 36794 1196 168731 32114 22346
cat_boundaries=0 1 2 3 4 5 6 7 8 9 10 11 12 13 14 15 16 17 18 19 20 21 22 23 24 25 26 27 28 29 30 31 32 33 34 35 36 37 38 39 40 41 42 43 44 45 46 47 48 49 50 51 52 53 54 55 56
cat_threshold=2 2 2 134217730 134217730 134217730 134217730 2 2 134217730 134217730 2 134217730 134217730 134217730 2 8 134217728 134217730 38 514 134217730 8 2 2 2 2 37 408 134217730 2 2 514 1 134217730 514 8 6 528 36 135 384 134217730 546 134217728 5 961 50 8 8 134479874 134217730 256 134217728 2 6
is_linear=0
shrinkage=0.0731148


Tree=2
num_leaves=255
num_cat=60
split_feature=13 15 13 15 15 14 13 13 15 13 15 13 4 15 15 14 15 12 13 4 15 14 4 15 12 12 13 13 15 13 13 13 15 14 15 14 14 13 4 8 15 13 14 14 15 15 8 15 4 13 4 15 4 4 4 14 8 15 13 8 13 8 14 4 4 8 15 15 8 14 13 15 15 14 4 14 8 12 13 15 15 13 13 15 15 13 12 12 13 4 15 4 15 14 12 4 4 15 13 4 1 12 14 14 8 14 8 8 13 0 0 13 1 8 15 12 12 14 12 14 15 10 4 1 13 4 12 14 13 15 13 1 13 14 0 12 14 14 15 4 1 15 0 15 8 8 14 0 14 0 12 14 4 15 14 10 13 2 15 4 2 1 14 15 12 2 2 2 15 12 15 14 14 1 8 0 14 12 13 8 10 2 15 8 14 14 8 12 14 12 2 15 14 2 8 14 4 14 0 14 1 15 14 12 14 15 13 14 0 12 14 15 2 2 15 15 12 8 8 4 1 14 13 14 12 14 2 14 12 1 14 10 2 2 15 14 8 14 14 15 15 8 15 14 14 12 14 0 1 15 1 4 11 15
split_gain=2.73726e+06 1.05874e+06 378468 167561 149460 105600 39713.3 28832.8 26865.6 24757.8 21273.9 17920.8 16677.5 16706.7 14400.2 14390.2 13670 6817.91 4489.21 4391.11 4057.6 3654.95 3543.42 3425.89 3423.13 3420.59 3386.63 3100.53 3035.43 2926.48 2691.71 2523.24 2488 2256.73 2139.29 2129.52 2019.41 2004.12 1905.97 1904.95 1867.27 1667.67 1665.26 1637.68 1556.05 1473.13 1422.54 1316.57 1285.56 1243.2 1223.69 1217.27 1215.65 1082.98 1015.38 976.553 965.865 963.74 944.562 945.192 923.807 909.315 904.101 883.23 871.375 861.527 856.696 748.587 723.821 707.686 702.13 696.421 640.922 628.334 623.057 612.068 612.066 674.034 605.094 602.444 582.121 581.902 584.667 577.899 559.726 553.047 551.787 551.066 547.833 537.979 537.785 534.064 522.179 520.255 520.206 516.753 510.562 497.156 477.506 475.204 464.676 463.061 452.137 444.964 434.901 433.19 430.909 425.711 409.439 393.263 390.042 389.151 382.344 379.302 376.871 370.638 366.264 361.051 360.537 355.669 351.749 349.626 322.15 322.1 318.382 314.97 306.477 306.349 304.966 299.021 296.694 292.11 292.064 288.547 288.434 283.732 446.532 281.127 281.09 276.475 271.306 265.406 265.374 265.125 260.901 257.866 256.123 253.58 252.718 251.341 275.894 249.106 248.736 245.484 244.836 244.067 242.371 236.874 235.847 235.746 234.873 232.142 270.586 227.84 226.445 226.325 224.663 222.729 220.848 219.597 216.645 215.524 215.149 213.218 212.747 210.288 321.062 209.954 209.561 208.67 205.278 205.027 204.11 203.659 202.898 200.879 199.047 198.881 207.818 357.559 220.131 198.813 198.173 196.24 195.419 194.305 194.075 191.237 190.229 190.066 189.555 188.151 187.47 184.48 184.232 184.12 182.926 200.629 180.852 209.565 178.57 191.989 178.053 176.868 175.639 173.477 173.333 171.879 171.528 171.01 170.564 337.692 170.072 169.742 168.853 197.732 240.758 168.648 168.129 182.205 167.384 166.836 165.953 164.548 164.412 163.765 162.881 162.787 162.546 162.017 161.854 160.462 160.014 159.883 159.558 159.352 225.189 230.378 163.394 159.313 158.717 158.637 156.816 156.179
threshold=2.5000000000000004 0.95604103281769226 8.5000000000000018 0.45078440933181918 1.9961360123647607 3.7829556975455643 1.5000000000000002 20.500000000000004 0.25134972677595635 4.5000000000000009 0.6455565772569275 1.5000000000000002 0 3.9683153013910357 0.19593484016560944 2.4289540451686684 1.3694237675268195 0.77500000000000013 1.5000000000000002 1 0.16001658374792707 1.6866391380028005 2 0.35936692088934857 0.77500000000000013 0.88500000000000012 1.0000000180025095e-35 12.500000000000002 2.6206850598037117 6.5000000000000009 3.5000000000000004 1.0000000180025095e-35 0.78476845537263229 5.0699025261176933 1.1433135624492319 1.9094042124044841 7.4094342842074257 37.500000000000007 3 11312.500000000002 0.11913879280018763 1.0000000180025095e-35 2.9739761771970366 1.3998556998556999 1.6053582493851011 2.4646702898550727 11312.500000000002 0.57623777404284005 4 1.0000000180025095e-35 5 7.5237399932627911 6 7 8 2.9260376937202959 11307.500000000002 1.1433135624492319 1.0000000180025095e-35 11309.500000000002 1.0000000180025095e-35 11308.500000000002 2.0789734234550292 9 10 11338.500000000002 4.3791089475990317 1.1007190951093084 11311.500000000002 2.1700579146542895 1.5000000000000002 2.5110236250848721 0.58995105615662047 10.106481481481483 11 1.4797981994126079 11307.500000000002 2.3750000000000004 5.5000000000000009 2.5701585158634184 5.6780747143714416 1.5000000000000002 1.0000000180025095e-35 0.098874768273622099 6.32147528878341 5.5000000000000009 1.5050000000000001 2.3750000000000004 1.0000000180025095e-35 12 0.31070420376307695 13 0.31505985889825761 1.5966062662868918 1.2550000000000001 14 15 0.29597611147976116 1.0000000180025095e-35 16 17 1.7750000000000001 1.2445784346657711 1.8442927342719788 11102.500000000002 1.0734228868346816 11237.500000000002 11102.500000000002 1.5000000000000002 18 19 1.0000000180025095e-35 20 11338.500000000002 0.4045340349089504 0.87500000000000011 2.4850000000000008 5.4662650384768243 1.1850000000000003 1.8027943654001966 1.1608924152056213 1.0000000180025095e-35 21 22 15.500000000000002 23 1.675 3.4581055377966323 1.5000000000000002 0.1645701476793249 1.0000000180025095e-35 24 10.500000000000002 4.9286623046165046 25 1.675 3.0535855336694904 2.2600271806913876 2.194890962851987 26 27 0.52193214774331365 28 2.6206850598037117 11102.500000000002 11102.500000000002 1.1077630287396993 29 11.95016542597188 30 0.94500000000000006 2.3092731285502373 31 0.214323346475469 7.5666736914201422 1.0000000180025095e-35 3.5000000000000004 32 0.54770236299648078 33 34 35 2.3689166389166396 1.8706841256187328 11.505000000000001 36 37 38 0.07734748991605532 1.4750000000000003 0.99974240082431753 1.0318304626815269 9.2687752134346582 39 11334.500000000002 40 6.5532982134677065 0.71000000000000008 4.5000000000000009 11102.500000000002 1.0000000180025095e-35 41 3.2438694326478053 11238.500000000002 1.3119411948548565 4.2461053142441161 11315.500000000002 0.58500000000000008 2.582320697500458 1.8750000000000002 42 1.1131181570151301 1.888127953789603 43 11316.500000000002 1.6773097135652859 44 1.3119411948548565 45 4.0083661388621596 46 0.29597611147976116 2.1451830249396626 6.6850000000000014 1.6371343957331497 0.56968342082751244 1.5000000000000002 4.9286623046165046 47 10.975000000000003 2.4289540451686684 1.428387429160227 48 49 0.52193214774331365 0.54138519780627503 6.4750000000000005 11525.500000000002 11102.500000000002 50 51 4.7521468661174557 7.5000000000000009 1.3839249021261872 1.675 3.2376429546678698 52 1.3998556998556999 1.2850000000000004 53 1.9545189725652519 1.0000000180025095e-35 54 55 1.3325100635093865 4.0083661388621596 11102.500000000002 2.8526501924970904 2.8085152186443154 1.8069520543731445 14.066956801059368 11320.500000000002 0.52193214774331365 2.0789734234550292 2.0908599508599512 1.6850000000000003 2.709862239715592 56 57 6.32147528878341 58 59 1.0000000180025095e-35 0.72232260687169114
decision_type=2 2 2 2 2 2 2 2 2 2 2 2 9 2 2 2 2 2 2 9 2 2 9 2 2 2 2 2 2 2 2 2 2 2 2 2 2 2 9 2 2 2 2 2 2 2 2 2 9 2 9 2 9 9 9 2 2 2 2 2 2 2 2 9 9 2 2 2 2 2 2 2 2 2 9 2 2 2 2 2 2 2 2 2 2 2 2 2 2 9 2 9 2 2 2 9 9 2 2 9 1 2 2 2 2 2 2 2 2 1 1 2 1 2 2 2 2 2 2 2 2 2 9 1 2 9 2 2 2 2 2 1 2 2 1 2 2 2 2 9 1 2 1 2 2 2 2 1 2 1 2 2 9 2 2 2 2 1 2 9 1 1 2 2 2 1 1 1 2 2 2 2 2 1 2 1 2 2 2 2 2 1 2 2 2 2 2 2 2 2 1 2 2 1 2 2 9 2 1 2 1 2 2 2 2 2 2 2 1 2 2 2 1 1 2 2 2 2 2 9 1 2 2 2 2 2 1 2 2 1 2 2 1 1 2 2 2 2 2 2 2 2 2 2 2 2 2 1 1 2 1 9 2 2
left_child=1 3 5 8 11 9 12 27 20 15 38 16 -6 17 40 30 22 79 32 -18 83 48 74 68 80 151 107 36 49 45 35 104 53 85 58 63 67 90 152 70 168 145 99 54 101 55 96 81 -13 218 -23 105 -20 -12 -8 78 130 222 179 118 236 159 180 -2 -48 115 93 117 110 194 88 95 73 124 -3 -50 -46 149 122 232 193 82 -41 -1 102 92 123 134 144 -45 -9 -37 -16 143 173 -32 -34 -70 -66 -17 172 -28 -56 212 -26 -33 177 -27 224 127 133 -98 238 192 -44 -62 140 132 -60 163 -80 166 -11 -43 -29 -63 200 205 175 -42 -55 -35 -4 -10 234 185 155 170 -96 -116 243 220 -138 184 -40 -30 -86 -99 -38 150 -78 -21 -5 -102 206 253 214 -120 -129 -25 -132 162 -123 -97 215 -124 -100 -115 -7 -161 -118 -53 183 195 -125 -127 -177 -71 201 -24 -52 -135 -88 -22 -65 -58 -141 -113 190 -190 -189 -121 231 -15 -54 -51 -94 -82 -47 -171 -108 -133 -93 237 -81 -90 207 -149 -201 -210 211 -167 -91 -117 -101 -111 -209 -174 -19 -59 235 -222 -31 -151 -49 -226 -227 -165 229 -107 -196 -103 -14 -128 -67 -84 -36 252 -64 -79 -148 -198 -72 -61 -143 248 -247 -248 -162 -73 -85 -140 -89 -137
right_child=2 4 7 10 6 14 43 37 23 29 18 21 13 24 33 42 19 28 52 25 100 50 34 61 31 26 44 72 41 57 71 51 46 131 60 91 148 -39 39 47 129 86 114 89 76 198 64 108 75 94 62 171 69 56 84 -57 135 219 59 116 65 125 112 66 98 87 -68 -69 97 106 242 249 -74 -75 -76 -77 77 239 120 204 197 -83 141 250 146 -87 182 203 109 103 -92 202 196 -95 138 119 111 147 121 156 153 113 -104 -105 -106 228 126 -109 -110 164 -112 187 -114 167 139 213 137 -119 157 191 -122 161 165 174 -126 128 233 158 -130 -131 160 178 -134 181 -136 136 142 -139 251 186 -142 244 -144 -145 -146 -147 240 154 -150 223 -152 -153 -154 -155 -156 -157 -158 -159 -160 169 245 -163 -164 227 -166 210 -168 -169 -170 199 -172 -173 217 -175 -176 176 -178 -179 -180 -181 -182 -183 -184 -185 -186 -187 -188 188 189 -191 -192 -193 -194 -195 230 -197 241 -199 -200 208 -202 -203 -204 -205 -206 -207 -208 216 209 -211 -212 -213 -214 -215 -216 -217 -218 -219 -220 -221 221 -223 -224 -225 225 226 -228 -229 -230 -231 -232 -233 -234 -235 -236 -237 -238 -239 -240 -241 -242 -243 -244 -245 -246 246 247 -249 -250 -251 -252 -253 -254 -255
leaf_value=-0.088525973550160134 -0.11527801166243996 -0.013568039604647789 -0.062386101795512995 -0.051895071289977439 -0.11465619133389225 -0.096739525217511502 -0.11068437523606449 -0.098319926085112405 -0.023834684070585716 -0.090269568652111318 -0.072302624993909465 -0.074441494119858842 0.064011390358983566 0.1056391258555282 -0.049129038859240873 -0.085548382837115924 -0.11464196349084675 0.05949605699360281 -0.083490414673957208 0.047290959408466879 -0.039220606490953415 -0.11612196192332268 0.048353412922102393 -0.11403723661858185 0.082156435534439382 0.048576239252224006 0.065644122913180253 -0.079842158749205652 0.072041238781678008 -0.038867585827427588 -0.082721431542070609 0.13531334468445458 -0.10862497078181527 -0.064509567034021734 0.046855885197661949 -0.08328712719658446 -0.08512829387145919 -0.11271803004414155 0.018788333896649693 -0.081529093681747294 -0.077285361213340842 0.082634759882331862 -0.034252358457865742 -0.11070324915197673 0.09536244855856342 -0.038044588384972287 -0.11339244111673627 -0.0078435027382597732 0.066586503578155334 0.089044823079906757 0.034976523894873553 0.14132285743761658 0.030736508711768286 -0.023735768228421061 0.082446174499309896 -0.036180779678654469 0.0099254942353890693 0.002621099543389664 0.030051853525237204 0.045372761505084187 0.013556701571760154 -0.11229265428688509 0.012265449832400403 0.05885129045022016 -0.061981905679265335 0.010661460994205181 -0.0020650849983652343 -0.083826565614477794 -0.04390923204136863 -0.042016956973631059 -0.0049795308883009131 -0.016401804438534263 -0.097842807173606064 -0.096478453339035486 -0.11488215775133831 0.051392467032979484 0.085855291947600956 0.087006970160195429 -0.025552931379489052 0.083364171615160604 0.12249944512006385 -0.013338771333086457 -0.011627143733517795 -0.076179627318362822 0.076572397550201898 -0.053326544093752599 0.11430003471968547 0.060170114025946957 0.012856952837842628 0.036026565969271535 -0.10701959848110366 0.011227712189828511 -0.095398284984052256 0.021860685603038908 0.098141249565484825 0.014597408894030354 -0.018099610236607028 -0.040766202522847371 0.025744506581828454 -0.01668103642584557 -0.062392265302631957 0.078791300970647501 0.06617946430776514 0.027928455869006524 -0.060632221569245255 0.089095469857735421 -0.021277356790880012 -0.0693674041759339 -0.0017950244173861498 0.0024377826680445852 -0.032849947621238204 -0.004503619884551612 0.026573985569538282 0.081534208461680552 -0.089186708733384384 0.067067142469984062 0.043240359854005483 -0.076146458166756484 0.074516385422411222 0.00034052880500351636 -0.043234396927080268 0.035128667791257506 -0.02438534988537603 0.11452008447506828 -0.088785802491952434 -0.026024632793010684 0.019280949783355702 0.028749084925209948 -0.02714403811645277 -0.069399969332713196 0.046228109300207043 -0.054068453223089258 -0.071759701299672699 0.024447986862951715 0.054498616739658515 0.015170726053166446 0.055457044227125947 0.068579756702914441 0.03764315319831095 -0.016429916217536561 0.045062887794071214 0.1000380179841947 0.0015055788454326673 0.023066451496022392 -0.066407291107514491 -0.056299555857110821 0.045921616849230545 -0.029454671850285476 -0.096273185990150292 0.092682984862655887 0.029679633274590476 0.022496504627150485 -0.11738555691094781 -0.05308847531827484 0.088786489058437223 0.027340249123063265 -0.016447858030721019 0.060457912573050096 0.063989813790738051 -0.036216923396570323 -0.019271268696003586 0.043754979145205583 -0.0061377051203812538 0.015594742733610317 0.032994489363912388 -0.0060827833176085692 0.034873771774728196 0.071486685497923266 -0.087146883995187385 -0.0097029713434411691 0.053290017064470313 0.1342467063051207 -0.048281374384378795 0.093391806911788236 0.10491169453294955 -0.015962751271281553 0.10698393554899915 0.023414604837802722 -0.061539321819523631 -0.058071716891321949 0.043424499251861648 -0.011793257539186076 0.11998081970784598 -0.05188704125920636 0.036560322916923307 -0.042575710793445173 -0.025788012944184417 0.056693169120577543 0.033880207277196144 0.075441266895568918 0.045372326606411717 -0.012592634564977643 0.096776177256274354 0.088242274330281756 0.0281983995239223 0.049384174670581427 -0.033147120545993981 0.10948270458878663 -0.062154457966499758 0.020378883361521469 0.0039688708344691216 -0.034209487696312726 0.0030885332972997925 0.076223167696897104 0.068834298992644163 0.025302230449895338 -0.036438963198038923 -0.014877345609830226 -0.00767469628252016 0.073485187011732261 -0.020572372323445453 -0.022898055869911605 0.053793969776667686 0.075934548678340916 -0.0058572537146557016 0.014040299571475191 0.055176246006621806 0.027437960112769281 -0.051060969937859302 -0.063549953114199864 -0.0045157493188185778 0.043728350952282724 -0.047925398584440726 0.077836549138281655 0.0096467263868778904 -0.0034402844161206632 0.040034575779404273 -0.014685455103514719 0.12664636652465569 0.12197175602864407 0.016823625677204516 0.089241836736430782 0.042723102295043572 0.0089919535831975046 0.062517562235616109 -0.051190700869800744 -0.052352926346342359 0.11792647212088816 -0.015748801895099036 0.094463351831162348 0.0064975445152914849 -0.041338497353326932 0.0058925251530828997 0.013437730938672751 0.0022798675631736215 0.031820518348113468 0.019991339924709813 0.060370402022479397 0.025380247814896728 -0.041490748677364575 -0.066787668051357135 0.10513487409481966 0.069242280040635137 0.023094079985228142
leaf_weight=19173.370877176523 230.08704203367233 705.63660334050655 44642.674843281507 692.07536788284779 1683.7474541813135 18569.217065095901 160.59072607755661 70455.16030356288 17654.639150574803 311.12028788030148 592.52309466898441 398.93012292683125 4083.7262177020311 8059.5058539658785 50456.266882151365 452.81141573190689 603.52646979689598 97.813687071204185 643.02027605473995 5825.313085064292 8770.6411750763655 284.23629707098007 122.67950886487961 103.19283306598663 155.98870813846588 201.93763272464275 15784.118532240391 42057.220006898046 110.19667392969131 26458.823637932539 380.82390387356281 25223.731538802385 101.10724902153015 51993.508966416121 112.48723702132702 343.80167585611343 29290.4358266294 443420.33272621036 274.35384413599968 501.35383675992489 60993.367571443319 2575.5144055485725 23869.292187571526 106.46039009094238 48250.84753356874 2467.2908140718937 204.39263181388378 2673.4644728302956 20704.301517307758 1500.5696035921574 47365.410687029362 30912.452287405729 14468.455909371376 453.07775527238846 15535.865204319358 40217.282672017813 5377.9625224322081 219.73255944252014 1829.3489648401737 1258.3686160892248 566.30626639723778 197.02365127205849 4470.6185378432274 2462.3855534493923 273.19141234457493 1317.4308886528015 5596.7403601557016 21235.417611539364 40058.410330593586 266.31362597644329 11824.338347733021 6722.8998418003321 45694.980833292007 31325.226052477956 608.39574770629406 44929.411268144846 771.72182427346706 36660.408203139901 22829.128293856978 10527.832791209221 10036.570528924465 44230.450827479362 11231.935307323933 33053.364881679416 1346.6461640745401 45031.753492355347 82090.519443303347 30252.87603507936 13810.434756144881 3647.0674366801977 82422.300983995199 27915.828736424446 323.16513228416443 35927.925969019532 50837.344514325261 13957.219496890903 448.75195750594139 18496.569376155734 22524.062773391604 10072.563085302711 35967.671801641583 24043.929513037205 22168.752101182938 5032.7084090858698 423.90549771487713 919.21431156992912 2527.3346267938614 861.66329383850098 24009.149771898985 13624.577072262764 25402.587996423244 351.59064592421055 19020.640355408192 20307.300437584519 331.13023097813129 20119.326211586595 15293.455503955483 25886.109572678804 8414.0292851775885 30785.689071372151 8166.0544850975275 4504.5371428579092 14374.167251110077 22038.225124791265 43066.653895586729 14085.451661333442 10484.101968646049 3884.1094061434269 34268.065045326948 44437.937625795603 9106.6176747083664 19569.479776084423 29519.507699087262 1078.1828862726688 26095.358312606812 28840.483970806003 3221.6082758456469 5139.7145466208458 225.18019786477089 17492.347669452429 26708.172067090869 89.490114808082581 585.26937954127789 7403.4495057463646 641.35207046568394 347.92799046635628 3861.2849489301443 23177.84364143014 17301.339887917042 4654.3210615515709 1185.0487843006849 3448.4370808601379 661.98853328824043 26206.898265227675 91.755876615643501 27101.533790811896 29497.642607450485 35552.371250703931 1374.4418023079634 1451.6744263768196 574.10873994231224 27170.283087596297 1046.8181916475296 1483.0099564194679 2139.9383556693792 17638.365740701556 41871.937276721001 35426.412268713117 41512.154846087098 30900.351283445954 45834.580760478973 90006.635967254639 290.68044978380203 22826.108334749937 27933.135361850262 39896.987187981606 113.86832122504711 16793.350849151611 21795.944793611765 499.44592936336994 22766.97630867362 3572.4168469309807 57490.057804644108 29986.813039168715 19231.041070267558 420.01489964127541 39786.941872641444 14011.516270339489 1526.2856535315514 4024.2376467436552 29999.944787546992 8006.4734801501036 5908.9228573292494 8269.537771359086 10194.271990567446 1179.3414846211672 19105.688510224223 15128.232758030295 7423.1241350471973 2302.2747134566307 4285.9530458599329 2932.5630823969841 33024.291973605752 7118.7682530730963 8376.9582714140415 11771.302622914314 18149.478070408106 3479.7116283625364 4509.6324187219143 176.7433327883482 12135.632488757372 4570.2781906574965 24561.221119493246 39885.735088914633 39223.271277725697 13934.455505177379 199.64579306542873 357.17705449461937 321.91761374473572 17488.756033852696 30600.544221684337 795.78012162446976 19067.112913668156 35644.90303170681 39833.485621243715 947.37114454805851 2450.5543079078197 2917.9617354273796 98683.383503124118 45905.694189831614 21504.112683162093 12366.461712062359 4229.5021933615208 40442.360551893711 434.6912606805563 588.60371948778629 414.28869703412056 292.6879807561636 1471.6946695446968 27089.348526805639 650.46513530611992 38636.939471840858 18652.645709365606 2509.1284734457731 33695.217123448849 26617.242725044489 1048.1355082988739 3048.3109253644943 1849.29304510355 1693.9015729725361 13566.944903448224 87259.758033424616 15355.150339841843 24678.594226181507
leaf_count=80846 964 2863 186092 2877 7191 78560 683 298514 72462 1309 2478 1663 16397 32252 209168 1906 2578 393 2705 23452 36280 1192 494 425 625 813 63323 176773 442 109290 1601 100929 426 216724 453 1446 123317 1892207 1124 2103 255791 10319 98323 445 193180 10192 863 10906 83118 6011 191057 123729 58508 1860 62281 165747 21780 904 7383 5080 2297 836 18143 9923 1135 5337 22797 89318 165441 1082 48177 27561 193488 132550 2599 180779 3095 146800 93772 42180 40147 180825 45915 138475 5406 186852 328369 121496 56062 14692 350612 113320 1349 145445 203442 56685 1839 76275 90992 41198 149794 96351 88986 20332 1765 3677 10303 3600 97912 55453 104602 1423 76927 81428 1396 80715 61568 108451 33765 125437 33812 18186 58954 88157 181720 57827 42539 15731 140669 185814 36677 81312 123563 4410 104903 116797 13016 20682 901 71628 107512 364 2372 29949 2650 1446 15540 95426 73182 18650 4770 13959 2794 108821 372 109709 120634 142814 5545 5934 2333 109639 4253 6019 8686 72089 168976 142050 174891 126263 184398 360131 1205 91372 111750 163447 460 67985 90712 2077 91824 14657 229961 124315 77603 1702 163413 56379 6142 16192 120716 32620 23673 33107 41280 4728 78875 60519 30875 9383 17427 12108 134379 28543 33610 47676 74696 14279 18414 721 49760 18761 98795 159962 160163 56439 813 1452 1335 72815 124793 3222 78891 142852 161795 3835 9919 11906 394776 183635 87171 49550 17043 164093 1753 2431 1720 1172 6006 108445 2626 159505 75842 10161 137114 107471 4232 12308 7468 6950 56714 349146 61629 99849
internal_value=-5.75218e-05 0.0477977 -0.0672287 -0.00566351 0.087623 -0.0352476 0.1095 -0.100633 -0.0405314 -0.0142979 0.0169735 0.0636498 0.114844 0.115382 -0.063098 -0.0029326 0.0697834 0.104985 0.0277808 0.0813012 -0.0636957 0.0421621 0.0585633 -0.0266532 0.12735 0.0817271 0.0832343 -0.0832936 0.107676 -0.0353873 0.0102568 0.13014 0.032851 -0.0520175 0.0591144 0.0162781 -0.0763287 -0.110229 0.001681 0.0020956 -0.0798242 0.113903 -0.0191877 0.0596198 0.0837509 -0.0291172 0.0393776 -0.00205473 0.055385 0.100374 0.0330078 0.130443 0.0160413 0.0256136 0.0689277 -0.0268862 0.0260535 -0.0482907 0.0528098 0.0532022 0.0654762 -0.0178488 0.0334622 0.0249106 0.0342242 0.0658362 0.02538 -0.0713585 -0.034099 0.0165759 0.0107479 -0.00180753 -0.0905046 -0.087625 -0.0609898 0.0561769 0.088536 0.0854288 -0.0222151 0.0697125 0.107698 -0.00664727 -0.00282847 -0.0778409 0.0695992 -0.0465148 0.114236 0.0608976 0.0152476 0.0474159 -0.10301 0.00629791 -0.0436883 0.0277462 0.100696 0.00106631 0.0493441 -0.0375292 0.0345421 -0.0116413 -0.0545338 0.0772667 0.072882 0.0479411 -0.0222227 0.126468 0.0121838 -0.0469743 0.00594173 0.0160966 -0.0266463 0.049673 0.0215163 0.0791377 -0.0265272 0.0724296 0.0491058 -0.0687121 0.0618557 0.00163882 -0.0302113 0.0348171 -0.0171601 0.10785 -0.084367 -0.0219614 0.0091673 0.0218804 -0.0217448 -0.0739618 0.0351155 -0.0607925 -0.0661172 -0.0195578 0.0525695 0.021768 0.0228425 0.0521566 0.102465 -0.0233265 0.0424719 -0.00231605 0.0473122 0.0350133 -0.0408819 -0.0254286 0.0485899 -0.0335104 -0.0892668 0.0782677 0.051571 0.0380712 -0.0845386 -0.0584707 -0.0305187 0.021687 -0.0112043 0.063179 0.0379601 -0.008615 0.0357467 0.0409713 0.0273471 0.0100236 0.0100799 -0.0166712 0.03169 0.0751751 -0.0901117 -0.00830738 0.0507757 0.136056 -0.0483222 0.0911013 0.109149 -0.0183287 -0.015609 0.0223932 -0.0564297 -0.0370853 0.037719 -0.00336397 0.11664 -0.0490207 0.0390905 0.00612222 -0.0229262 0.0502923 0.050681 0.0640128 0.0489996 -0.0023288 0.0843563 0.0969476 0.0236956 0.0715915 -0.0389605 0.114674 -0.0562413 -0.00724025 -0.00539601 -0.0514803 0.00681586 0.0652718 0.0769258 0.0185836 -0.0307687 -0.0269369 0.00364871 -0.00460398 -0.0134365 -0.00954317 0.0515287 0.0729852 -0.00806887 0.00830427 -0.0110762 -0.00653573 -0.0252968 -0.0627633 -0.00611133 -0.00329294 -0.0426612 0.0795315 0.0099882 0.0110909 0.0280211 -0.00448183 0.124934 0.121326 0.0204818 0.0823407 0.053309 0.0111157 0.0233932 -0.0135972 -0.0311679 0.0635733 0.00532734 0.0901754 0.0402378 -0.0386215 0.00167443 0.0241042 0.00253881 0.0328424 0.0342766 0.050235 0.0148022 -0.021451 -0.0734465 0.104977 0.0632245 0.0188243
internal_weight=4.55213e+06 2.65827e+06 1.89385e+06 1.13486e+06 1.52342e+06 967534 796531 926317 446740 552176 688116 726887 719460 717776 415358 358810 565475 384052 403183 279035 167374 161412 286440 279367 333725 278431 269157 330020 356834 193367 198084 292231 281573 249845 285126 132136 167875 596298 284933 283579 165513 192586 160726 77071.1 268094 130132 148059 191647 66032.6 164248 95379.6 291651 121609 133515 43723.6 120242 132922 63234.4 143161 142539 141965 128005 95095.3 70851.6 97595.2 141438 70621.5 121284 151361 120966 91931.9 65948 162144 116449 1314.03 65633.7 154257 106006 80024.7 27218 41493.8 121733 77502.9 65793.7 43563 153554 192127 80867 61455 33347.5 152877 61283.9 108522 65024.8 163828 57531.2 50463.4 103653 97390.8 79246.3 101580 113837 37704.6 33241 579.894 170732 74799.4 1063.6 69914 60539.3 47707.8 50362.3 24963 98053 81479.7 60571.4 96743.4 100048 45795.7 57150.4 30995.2 97117.6 49029.6 52546.9 85123.9 88561.4 57739.8 30840.3 88364.4 105431 42696.8 96291.5 74162.2 22305.2 27847.5 90225.5 84427.5 66267.8 138322 57610.4 30475.7 77001.6 3806.88 29096.9 915.706 458.125 5858.4 63595 46591.8 42256 1956.77 9273.75 1354.06 62174.6 45098.4 80620.6 78793.5 43966.4 5258.55 39443.9 42243.7 32721.6 5551.36 18358.2 29699 48718.4 64396 55733.7 60081.4 39340.7 61128 120919 39405.3 25506 49971.4 54096.3 40010.9 17059.7 44298 622.125 70132.4 4650.6 139581 38757.5 21693.4 5797.98 57279.3 49913.6 49562 5550.52 44011.5 38792.2 42319.3 16329 46166.8 2679.91 58065.8 25164.8 9890.41 37889 6813.29 22502 60940.1 53019.5 18904.8 25581.7 45006.7 26857.2 6988.65 4686.38 34344.3 22208.6 28208.3 60005.1 49295.8 27559 3679.36 647.858 419.731 17708.5 43216.9 31396.3 45525.9 40299.2 45904.9 43231.4 3397.93 4400.97 145508 46824.9 31698.4 36410.4 8313.23 50926.5 1752.12 11820.5 526.776 45900.7 5942.31 63749.8 4511.75 57742.6 30477 3767.5 33784.7 33137.1 30713.7 4096.45 2423.4 8416.8 46620.3 87484.9 45608 53519.1
internal_count=18668020 10746135 7921885 4636210 6109925 3992098 3189271 3929787 1845714 2260437 2790496 2920654 2879485 2872294 1731661 1463266 2269945 1537002 1630306 1118569 697902 650709 1151376 1147812 1335292 1115991 1078580 1388454 1427772 797171 804605 1169267 1137213 1036605 1145914 535826 703923 2541333 1160190 1154519 695056 770444 658661 309786 1074167 535271 597161 781134 265560 657328 385149 1166877 493093 540052 175522 494204 537574 261900 575934 573363 569980 524379 383957 286681 394044 567807 285717 507424 623433 490388 373385 268779 684531 491043 5462 263897 617792 424612 328457 109230 166025 496767 315942 276035 174839 635749 768556 324833 249366 134264 649126 249145 448897 262920 655600 234268 203117 427302 393181 323901 421867 456375 151267 133819 2390 683017 303429 4413 284367 245592 196131 202691 101076 393052 334760 242974 389401 418106 183962 232667 127584 392046 200873 210226 358493 363239 234362 125014 362403 441605 172349 400856 309655 91529 111993 365225 341743 266648 553489 236437 122753 313839 15388 117475 3774 1888 23572 261861 196499 169367 7865 37411 5671 258615 185586 326355 321995 176579 21276 161140 170489 132078 22439 74610 120578 199564 259968 223478 253451 160715 245966 483860 163252 102111 199907 221734 163907 69067 184132 2571 282881 19067 558330 160595 87526 23482 235041 200852 199429 22334 177095 158057 169574 65359 186959 10739 239729 100666 41067 154781 27730 93420 247699 212840 75790 103738 185214 110518 28518 19135 140610 90850 113487 240677 201361 111892 15092 2657 1728 73719 176361 128015 188181 161502 186455 175549 13754 17925 582088 187312 128451 145901 33440 206632 7090 48346 2173 184297 24149 255245 18166 238380 124019 15241 137478 133812 124011 16540 9801 34511 195189 350047 183125 216646
cat_boundaries=0 1 2 3 4 5 6 7 8 9 10 11 12 13 14 15 16 17 18 19 20 21 22 23 24 25 26 27 28 29 30 31 32 33 34 35 36 37 38 39 40 41 42 43 44 45 46 47 48 49 50 51 52 53 54 55 56 57 58 59 60
cat_threshold=2 2 134217730 134217730 134217730 2 134217730 134217730 2 2 2 134217728 2 134217730 134217730 2 134217730 1 6 38 2 134217730 2 2 2 8 134217730 2 38 8 8 134217728 514 2 514 2 772 562 456 2 8 7 546 920 134217730 25 2 36 4 464 68157456 2 204 2 961 384 17 2 2 134217728
is_linear=0
shrinkage=0.0731148


Tree=3
num_leaves=255
num_cat=62
split_feature=13 15 13 15 15 14 13 13 15 13 15 15 14 4 15 14 13 13 12 13 4 4 15 13 15 12 12 13 13 15 13 15 13 13 15 15 15 14 15 15 14 13 14 4 14 4 13 8 14 8 14 15 15 8 4 12 15 15 4 8 13 8 15 13 4 12 4 4 15 4 15 8 4 13 15 14 15 1 13 14 15 4 14 13 13 4 14 15 4 8 15 14 12 12 4 15 13 14 4 14 4 12 12 8 15 1 8 8 13 14 13 13 1 13 15 15 12 1 12 4 8 14 13 8 8 14 14 8 14 2 14 4 15 1 13 15 4 1 2 4 12 15 2 13 12 1 12 1 14 2 14 14 1 12 15 4 15 14 14 8 10 14 0 2 0 14 14 14 15 0 14 14 13 14 11 2 14 8 14 4 4 8 4 13 14 14 11 15 12 15 0 14 2 14 14 12 8 0 14 0 14 2 14 13 12 8 14 12 0 14 14 11 14 2 8 8 8 14 0 1 14 13 15 8 14 14 8 15 3 13 14 4 14 13 4 12 2 15 8 2 14 8 14 0 10 0 15 4 4 12 14 13 8 14
split_gain=2.37869e+06 909677 344776 151222 124491 93153.8 32673.4 27430.6 23865.1 21343.9 19787.9 17315 14365.2 13666.2 12013.5 11238.3 7920.07 7066.9 5791.82 3985.72 3920.42 3595.6 3425.34 3237.24 3217.08 3098.93 2858.41 2596.64 2505.05 2405.95 2307.47 2303.57 2212.33 2177.96 2163.72 2011.58 1997.35 1943.3 1707.4 1664.84 1611.12 1599.88 1390.96 1310.73 1277.75 1251.05 1216.02 1170.07 1138.26 1133.96 1131.54 1129.41 1128.07 1102.39 1091.28 943.232 851.211 826.216 817.878 817.476 785.008 778.174 770.913 732.637 726.801 701.344 689.516 626.406 625.14 621.951 621.516 607.155 581.561 578.973 557.22 689.587 556.848 545.318 545.175 539.837 518.102 512.143 510.152 491.561 493.328 490.537 477.472 475.665 473.821 472.868 472.424 466.869 456.406 454.983 454.121 450.243 435.236 434.451 433.178 432.591 419.876 412.901 412.208 409.952 393.291 390.553 376.307 373.449 367.844 367.727 382.72 366.95 355.979 354.388 354.236 354.119 349.411 409.244 343.852 340.202 329.563 326.97 325.492 324.498 311.083 311.005 310.816 310.172 305.368 304.934 301.081 295.708 289.392 286.025 281.011 274.416 272.15 271.694 270.822 270.049 265.583 260.912 260.581 259.263 258.818 257.831 256.902 255.524 305.775 254.797 265.814 252.63 249.242 246.634 241.557 234.981 234.899 234.804 231.681 230.857 229.611 224.607 224.508 223.266 221.781 221.237 219.898 217.887 217.72 217.566 271.313 214.509 214.342 212.877 212.29 245.621 212.27 210.523 210.307 209.485 208.16 207.14 203.736 203.589 202.016 201.544 201.376 199.865 199.046 198.808 198.074 197.488 195.361 195.173 194.292 191.759 191.454 191.1 271.437 189.193 198.328 189.177 187.874 187.481 186.922 184.409 183.827 344.942 303.182 183.262 181.17 180.316 180.265 179.785 179.423 178.547 174.196 173.425 173.252 173.193 172.142 172.085 171.827 170.778 170.037 168.496 167.975 167.436 164.871 164.354 182.785 163.564 163.159 160.775 157.084 156.248 155.941 155.526 155.46 159.37 153.288 152.708 152.068 150.904 150.725 150.402 149.878 148.981 147.661 147.608 147.577 147.473 147.24 146.458
threshold=2.5000000000000004 0.97710860508762698 8.5000000000000018 0.45078440933181918 2.1519086818658106 3.6635938827527617 1.5000000000000002 21.500000000000004 0.24548103486519735 4.5000000000000009 0.66162610312918735 1.4728513218989863 6.2187309172972265 0 3.9683153013910357 2.3803912053886065 1.5000000000000002 1.5000000000000002 0.77500000000000013 1.5000000000000002 1 2 0.15509094582751057 13.500000000000002 0.36377628083057717 0.77500000000000013 0.73000000000000009 5.5000000000000009 1.0000000180025095e-35 1.2061366547881327 3.5000000000000004 0.83867862271353977 1.0000000180025095e-35 1.0000000180025095e-35 0.13704241193918007 0.27660585713130009 0.57623777404284005 7.9055751909702439 2.8015097744568456 1.3694237675268195 1.8553038534893067 37.500000000000007 2.9260376937202959 3 1.2721221269964942 4 1.0000000180025095e-35 11315.500000000002 1.5764209891007208 11241.500000000002 1.7401084482040543 6.32147528878341 1.6974056702009332 11312.500000000002 5 1.7750000000000001 0.93612339564600999 0.29597611147976116 6 11309.500000000002 1.5000000000000002 11308.500000000002 4.7690711743611525 4.5000000000000009 7 1.4850000000000001 8 9 0.79480155287395615 10 2.235703245749614 11338.500000000002 11 1.0000000180025095e-35 2.3189514555923272 2.5614162055786895 0.57623777404284005 12 6.5000000000000009 2.1163931901449549 5.6780747143714416 13 1.6866391380028005 1.5000000000000002 1.0000000180025095e-35 14 5.229751334496064 0.098874768273622099 15 11236.500000000002 0.28080250965114723 2.7346505382770361 2.3750000000000004 2.4850000000000008 16 0.19593484016560944 1.0000000180025095e-35 11.95016542597188 17 1.9429618731133156 18 1.5050000000000001 1.2850000000000004 11312.500000000002 0.098874768273622099 19 11102.500000000002 11221.500000000002 1.0000000180025095e-35 2.2460976295324655 1.5000000000000002 10.500000000000002 20 1.0000000180025095e-35 4.3791089475990317 7.5237399932627911 1.9850000000000001 21 0.9850000000000001 22 11102.500000000002 1.8027943654001966 1.0000000180025095e-35 11309.500000000002 11312.500000000002 1.5966062662868918 1.0318304626815269 11102.500000000002 1.3759131872233779 23 1.1345297494500779 24 0.33851349175682643 25 10.500000000000002 2.2787223080886148 26 27 28 29 1.7750000000000001 0.42184520404271553 30 1.5000000000000002 2.4850000000000008 31 1.675 32 5.6463984778472422 33 4.3380779269202092 1.0910396714429391 34 2.2350000000000008 1.428387429160227 35 0.49665522673890922 12.40289855072464 2.9504977029096486 11324.500000000002 1.0000000180025095e-35 2.7619723520010466 36 37 38 3.1658193762206315 2.2460976295324655 4.2908684157006318 0.73006456761965055 39 4.6838927027714226 1.5764209891007208 3.5000000000000004 2.2052207547416791 1.0000000180025095e-35 40 2.2600271806913876 11102.500000000002 7.5666736914201422 41 42 11212.500000000002 43 1.5000000000000002 2.0789734234550292 6.1050998052580345 1.0000000180025095e-35 2.4142467580643894 1.675 0.23135782276176331 44 3.6635938827527617 45 1.9646913785460995 1.6652171446938044 0.94500000000000006 11334.500000000002 46 6.5532982134677065 47 3.1658193762206315 48 1.1465902095586906 16.500000000000004 1.675 11321.500000000002 2.7346505382770361 9.8650000000000002 49 1.888127953789603 1.3839249021261872 1.0000000180025095e-35 2.0789734234550292 50 11102.500000000002 11320.500000000002 11343.500000000002 3.2376429546678698 51 52 1.3207412095775724 1.0000000180025095e-35 1.0876876074654998 11223.500000000002 1.1775852072485848 1.1970053609191689 11102.500000000002 1.1131181570151301 53 1.5000000000000002 5.1435170464582241 54 2.1163931901449549 107.50000000000001 55 2.2450000000000006 56 0.61000831725443072 11338.500000000002 57 4.2461053142441161 11333.500000000002 1.3839249021261872 58 1.0000000180025095e-35 59 1.4500257599175683 60 61 2.2650000000000001 2.8526501924970904 1.0000000180025095e-35 11429.500000000002 2.8763991838873921
decision_type=2 2 2 2 2 2 2 2 2 2 2 2 2 9 2 2 2 2 2 2 9 9 2 2 2 2 2 2 2 2 2 2 2 2 2 2 2 2 2 2 2 2 2 9 2 9 2 2 2 2 2 2 2 2 9 2 2 2 9 2 2 2 2 2 9 2 9 9 2 9 2 2 9 2 2 2 2 1 2 2 2 9 2 2 2 9 2 2 9 2 2 2 2 2 9 2 2 2 9 2 9 2 2 2 2 1 2 2 2 2 2 2 1 2 2 2 2 1 2 9 2 2 2 2 2 2 2 2 2 1 2 9 2 1 2 2 9 1 1 9 2 2 1 2 2 1 2 1 2 1 2 2 1 2 2 9 2 2 2 2 2 2 1 1 1 2 2 2 2 1 2 2 2 2 2 1 2 2 2 9 9 2 9 2 2 2 2 2 2 2 1 2 1 2 2 2 2 1 2 1 2 1 2 2 2 2 2 2 1 2 2 2 2 1 2 2 2 2 1 1 2 2 2 2 2 2 2 2 1 2 2 9 2 2 9 2 1 2 2 1 2 2 2 1 2 1 2 9 9 2 2 2 2 2
left_child=1 3 5 8 11 9 13 23 22 15 36 17 35 -6 18 30 20 21 79 31 -13 67 87 37 57 80 173 74 120 59 40 45 127 106 104 189 47 56 101 78 62 90 94 234 88 179 177 100 69 108 171 130 92 113 248 77 86 147 -51 73 85 183 66 132 -46 112 -2 -3 146 -18 98 193 -49 226 75 154 97 176 161 194 210 -42 115 84 -74 -38 111 -1 -8 191 -9 140 107 105 -17 -24 -60 203 -32 131 -5 205 137 169 -14 212 -27 -30 -33 -102 142 -4 195 214 202 247 117 232 -75 -44 -28 -100 -55 217 -67 135 -53 -20 -71 211 -35 -50 -37 -36 -58 -68 -63 -40 -120 -62 -52 -121 -111 197 242 -134 240 -10 -149 181 -151 -116 -97 219 180 -105 -86 -39 174 -148 -94 -29 -157 -81 -41 186 221 -65 -131 170 -59 -45 223 -22 175 -73 -48 -31 229 -12 -11 250 -103 -26 -83 -154 -118 -184 -91 -7 -80 -87 -175 201 -15 -54 -142 -138 -199 200 -144 -57 -90 -25 -141 -34 -190 208 253 -182 -16 -124 -61 -213 -47 -143 -114 -70 -72 -125 -82 -95 -223 -96 -104 -137 -23 -123 -176 230 -164 -110 -98 -43 -19 -132 -85 -113 -119 -240 -56 -139 -126 -168 -107 -210 -127 -66 -21 -226 -115 -222 -227 -208
right_child=2 4 7 10 6 12 44 41 24 27 19 16 34 14 25 42 48 43 32 54 26 29 95 76 61 33 28 39 52 46 70 49 38 51 133 63 60 157 102 164 81 233 119 50 64 53 55 72 99 58 91 126 65 122 68 71 134 103 96 93 139 136 -64 167 82 124 125 -69 123 128 218 158 83 118 -76 -77 -78 -79 190 163 220 184 -84 236 156 89 -88 -89 114 188 -92 -93 160 166 172 152 116 -99 121 -101 109 182 224 155 -106 244 -108 -109 231 110 -112 237 216 149 151 -117 165 238 138 141 -122 227 129 153 144 246 -128 -129 -130 168 235 -133 145 -135 -136 225 143 241 -140 204 196 215 199 -145 -146 -147 159 148 -150 150 -152 -153 185 -155 -156 162 -158 -159 -160 -161 -162 -163 178 -165 -166 -167 243 -169 -170 -171 -172 -173 -174 192 228 -177 -178 -179 -180 -181 209 -183 187 -185 -186 -187 -188 -189 206 -191 -192 -193 -194 -195 -196 -197 -198 198 -200 -201 -202 -203 -204 -205 -206 -207 207 -209 245 -211 -212 213 -214 -215 -216 -217 -218 -219 -220 -221 251 222 -224 -225 249 252 -228 -229 -230 -231 -232 -233 -234 -235 -236 -237 -238 -239 239 -241 -242 -243 -244 -245 -246 -247 -248 -249 -250 -251 -252 -253 -254 -255
leaf_value=-0.083940881852594809 -0.073967057475080034 -0.013577496940525955 -0.057711716393458845 -0.081178670997238994 -0.10973656612717775 -0.059212275542267587 -0.100306482185017 -0.09383955532961627 -0.043413923483865899 -0.085623024923305147 -0.031311936224046988 -0.10990349825038473 -0.088414836498336327 0.074756358432778239 0.099810497160930101 -0.11089992680273522 -0.064264780422216172 -0.03043708550144128 0.060677508880502676 -0.037406676214961042 0.048946785227890997 0.042651295644059783 -0.058139994774446577 -0.078659750305682827 -0.0032001449181694092 0.076015542656369214 0.047909471401943814 -0.023878681883460821 0.084161614821302494 0.046659227810467642 -0.078650101119842719 -0.024938161603188333 0.09674362921701829 0.12193867344620311 -0.061492437177052849 -0.041305444362192564 -0.070958819772612688 -0.081911983414562892 0.074510679318796999 -0.061809332055083405 -0.11006586665717917 -0.10660872772123055 -0.087041954438244917 0.052724961487654459 -0.10779152773724698 0.032500963140449854 0.039667792835504027 -0.079162977099135515 -0.065877690898789379 -0.063278870525002209 0.020460457784094218 0.13206977932816855 0.073787644200153171 -0.055199013486423351 -0.0015229651481040844 0.063443913610828739 -0.07254807683878553 -0.019247793072354281 -0.058975153220337355 0.0437776269313708 -0.081305702889638704 -0.10730988213419858 -0.0043128804375500273 -0.043633418390686518 0.026930800165867502 0.092158225565600924 0.037509699504718635 -0.11035583257775412 0.030509635431671255 0.070981554941034058 0.00042793119668350091 0.042278605228221224 -0.076832394321124833 0.013407576346726841 -0.043225744084801024 -0.02806210542086086 -0.094706056438834951 0.055806400088468038 -0.031284054490453447 0.067835231571769322 0.11354624017821227 0.012586854403466002 0.032369380270179729 -0.01894432184337913 -0.007643131568850361 0.022865153367794919 -0.072488811473449252 -0.069924413227101273 0.094494658038550242 -0.0060202074888855931 -0.10255189618077444 -0.0044746328599280334 0.075848836415834925 -0.045999085447172447 0.0029361495577763371 -0.052315707941120303 0.031827421782118628 -0.094198042673385246 0.01074317164567576 0.022866606031464568 -0.11384720695760553 0.034962523864247183 0.11417489690728529 -0.092484917711751102 -0.078246428657304606 0.039994007591347511 -0.056956978972274433 0.065352624178193042 -0.051293112686900941 0.022959525401458056 -0.0016526591751345723 -0.0652566898383177 0.084264809757815556 0.044804428252800045 0.082065382812746793 0.020574216794105135 0.035184135410513587 0.046258906188746542 0.065120585824086585 -0.02925929787534012 -0.061483060296265546 0.00097237873591632937 0.023873196443043147 -0.0089944748917241968 0.088178206067922052 0.025009217197513572 0.12415086208385752 -0.049877810545075014 0.055444770282689806 0.014082679982518553 0.11173534807923802 0.044823085998375242 -0.041540338423530485 -0.069727258453175636 -0.086772073252070578 0.04546868152558551 -0.02405396316232351 0.10768540972460795 0.054271099609472087 -0.016973893188250957 0.038524638141377784 -0.013981324810742558 0.0065020415993143864 -0.024982199268477733 0.087443771304928031 -0.02882226089362977 0.018823529738621322 -0.037026319960708216 -0.017753385788906714 0.031876781251491446 -0.047864100001025381 0.050948216388661066 -0.047819197458667778 0.021187340145962404 -0.025797239730649606 -0.037443156478127231 0.00080721347342770327 -0.092432269937665762 0.11504028975331511 0.0087743129639791615 0.084776129364881742 -0.03495888777815314 -0.026507828101156174 0.019418095564002397 -0.046047809497277728 0.084253843329814448 0.079076086229265194 -0.05187819484302552 0.022793156003489877 -0.02696231914178809 0.0059531179162714372 0.041284187265471929 -0.014190950504394811 0.057066145364758132 0.076371519631086668 0.060761554511282498 0.0059306671682593263 -0.058537010666325044 0.082573751268404716 -0.11152410456370584 0.00090552706614451027 0.033971673770079237 0.09572439310116139 -0.014472975443009711 0.0042222340732493016 -0.034536335300013571 0.043558507247387461 0.10179567642894133 0.0092983922086243825 -0.052428714606584811 -0.04306326316101939 0.067881874498105801 0.017484369425215029 0.082193445516290653 0.061068514802049265 0.034574187846166241 0.029222849303979965 -0.01423416273583937 0.098418479683161086 0.0011528927214263624 0.021561191234784182 0.073607427246297805 0.072727810153710659 -0.085715349428071824 0.0030877167974014789 0.085633093530756557 0.014611156268040309 0.066712221690808163 0.026603301790717567 -0.013089875026503989 0.08390335731729863 0.047647752999009738 0.0096951938652251862 0.02905405866274368 -0.052268428210381905 -0.023014743832681303 0.071694993383800004 -0.02407664149647586 -0.022833017827654064 0.013367449026725684 -0.050361889076396035 0.04660491040824831 0.053905939811711094 -0.0083234505543897108 0.10367470262310835 0.012011211998394731 -0.052053209988881854 -0.01133436774519766 0.063480339671615177 -0.033405281245621768 -0.0058473792674047518 0.052639061438134807 -0.0037222845612234425 -0.10944662292723825 -0.11173070219597361 0.11783202996711321 -0.0095087299545454501 -0.07660979471076923 0.013800396326038251 0.034025551337977827 -0.04664620138282545 0.097928881345652322 0.075783034778818939 0.052184652866378321 0.050486616847695356 0.01234751392271221 0.013739611149075074 0.054782448405518401 -0.11261876843418114 0.11003009218388303 0.068843269663932158 0.10168606801599538 0.030340923528821419 -0.034477668219490935
